//Numpy array shape [64]
//Min -0.654883921146
//Max 0.494154125452
//Number of zeros 0

#ifndef B2_H_
#define B2_H_

#ifndef __SYNTHESIS__
model_default_t b2[64];
#else
model_default_t b2[64] = {0.3160981834, -0.0010415406, 0.4134774506, -0.0158797335, -0.1391662359, 0.2971495688, -0.0647290349, -0.0615047403, 0.0972817317, -0.0014557387, 0.0156630874, -0.0252802595, -0.0744699687, -0.0015119559, -0.2845302224, 0.2797798514, 0.0043401453, 0.2082877755, 0.4941541255, 0.2891189754, 0.0043589636, 0.1567610204, 0.2646954656, 0.3005391359, -0.1193019375, 0.0236224234, -0.0398854464, 0.4436548054, -0.0334035158, 0.3244199455, 0.2273306698, -0.2404932976, -0.2341119647, -0.0965798274, 0.0687455535, 0.2814808488, 0.0260184500, 0.2001426518, 0.4749764204, 0.2560792267, 0.4157147706, 0.2570320368, -0.0909241065, 0.1047430262, -0.0945559293, 0.3712989092, 0.1214883104, 0.0966190621, 0.0968288407, 0.1309673041, -0.6548839211, 0.1150163934, -0.0452218316, -0.1583884954, 0.1541749984, -0.0087608444, 0.3833463192, -0.0092327464, -0.1033809856, 0.2357646376, 0.0290403385, 0.4889626205, 0.0695548877, 0.3054578304};

#endif

#endif
