//Numpy array shape [16, 64]
//Min -1.533864259720
//Max 1.783234715462
//Number of zeros 0

#ifndef W2_H_
#define W2_H_

#ifndef __SYNTHESIS__
model_default_t w2[1024];
#else
model_default_t w2[1024] = {-0.0013775062, -0.0001225542, -0.0981188938, 0.0861784965, -0.1199299544, -0.1535908431, -0.1939704567, -0.0000006083, 0.1762130558, 0.0000549199, -0.0017386220, 0.1177026108, 0.0017130023, 0.0001195406, -0.1218374446, 0.1405580342, -0.0000361369, -0.0039207302, -0.3964021802, 0.0750396475, 0.0136236306, -0.1673710942, 0.0002050672, 0.2162146419, -0.0707656890, -0.1513472646, 0.0388573483, 0.1650610715, -0.0417174958, -0.1078285128, 0.4111226201, -0.1624685526, -0.0006523725, -0.0163965560, 0.5599260330, -0.0465500355, -0.0003614750, 0.6230605841, 0.5509495735, -0.0012946944, -0.2761812210, -0.0419517756, 0.2711820602, -0.0420468189, -0.1499575824, -0.0221690498, -0.0046052318, 0.0004604128, 0.0047069406, 0.1469883621, 0.0115414653, -0.0667026937, -0.0408934094, -0.0078107822, -0.3248602450, -0.0002359255, -0.4410124421, -0.0100270035, -0.0017007510, -0.0073036416, 0.3035207689, -0.0020896213, 0.4215963185, 0.0094538154, 0.2789417207, 0.0002129652, -0.1135972068, -0.0374676362, -0.0014253496, -0.3434377015, 0.3637108207, -0.0000171876, 0.1762407273, 0.0000420120, 0.0018032592, 0.0714392737, -0.0022741477, 0.0000541376, 0.0033724396, 0.3563015759, -0.0000270050, -0.0302258059, -0.1161359027, 0.0253433809, 0.9706912041, -0.1085383371, 0.0040195854, 0.0822455585, 0.4880078137, 0.0026116676, -0.0007334038, 0.0062622419, 0.0015731766, -0.0546470135, 0.1906545013, -0.0091712549, 0.0059014205, 0.0102132326, 0.2728020549, 0.0159024969, 0.0025236814, -0.1112675443, 0.4872055948, -0.1098146439, -0.0042729084, -0.0003767781, 0.8500208855, 0.0129040927, 0.1478985548, 0.1403691620, 0.0073560546, -0.1476844698, 0.0474244542, -0.0001520077, -0.0061243535, -0.0573392399, 0.0091820024, 0.1252853721, 0.0092995735, 0.0055076792, -0.0161244292, 0.5023062229, 0.1093416810, -0.0583815910, 0.2678078115, 0.1253665835, 0.5421738625, -0.0648355931, 0.3350007534, -0.0000148757, 0.0016361792, -0.3962890804, -0.4666704535, -0.0012595213, 0.0014501128, 0.0000113157, -0.0009740792, -0.0000854191, -0.0850285515, 0.0967251211, -0.0020726016, 0.0001631839, 0.0013086380, -0.4524948597, 0.0000238096, -0.6741355062, 0.0086907009, 0.5526810884, -0.0024412696, -0.0415823311, 0.0070297024, 0.4098896682, 0.1149612367, 0.0013841750, -0.5519879460, 0.0962561667, -0.0069022262, -0.1128710359, 0.0006435298, -0.0025511275, 0.2111836821, -0.0095019629, -0.2216646820, -0.2846904099, 0.0011939700, 0.1963998526, 0.2931079566, -0.0913441628, 0.3057398200, 0.5946667194, 0.0034708693, 0.0787145495, 0.2487154752, 0.4844310880, 0.0020159539, -0.0006860449, 0.0372781344, 0.0505147055, -0.0012178329, 0.5559248328, 0.3772551119, 0.0017689702, -0.0014484387, 0.4953533113, 0.0002032231, 0.1456221640, 0.0061421157, -0.4754767418, 0.0008002976, 0.3051283360, -0.0724284127, -0.1978576928, 0.0976993665, 0.0000541936, 0.0010251382, -0.2811753452, -0.0179989412, -0.1835984588, 0.0009591986, -0.0000167508, -0.0003241734, 0.0000448543, 0.0753057450, 0.0156420767, 0.3684819937, 0.0000322989, 0.0024261998, -0.7882094383, 0.0000234027, -0.8599067330, -0.8584121466, -0.0916423872, -0.1996663064, -0.4270008504, -0.0947904810, 0.0822521523, -0.0299734045, -0.2145417035, 0.0471476465, -0.2947076857, 0.0011163718, -0.0079762181, 0.0002489246, -0.0011321476, 0.2906899750, -0.0264351703, -0.0015361797, -0.1660483181, 0.0015895353, 0.0004147784, -0.3025728166, 0.0013199552, 0.0497817099, -0.0039927908, -0.0613655560, -0.0003820579, 0.0023619835, -0.0003111298, 0.0003401789, -0.0044713737, -0.0053498931, -0.3677361608, 0.5343899727, 1.2749826908, 0.7769086957, -0.0003236466, -0.1316595972, 0.0005673079, -0.5453857780, -0.0010690485, 0.1504298002, -0.6336117983, 0.3162615299, -0.0121153472, -0.2565237284, -0.8821491003, 0.2439552248, -0.0000269183, 0.0036305513, -0.4544523060, -0.0024422077, 0.0011698424, -0.0005899864, 0.0000527468, 0.0290801059, 0.0000007736, 0.0001340404, 0.3301624656, 0.0537886545, -0.0001696750, 0.0024020374, -0.4699163735, 0.0000089579, -0.0011234503, 0.2103997469, 0.1050690413, 0.3942959607, -0.2381787896, 0.0039358186, 0.4449425042, 0.0035887272, 0.0009030670, -0.5377224684, 0.4072360694, -0.0010801889, -0.1320991218, -0.1944763362, 0.0682873502, 0.0747812763, -0.0305264592, -0.2566864789, -0.4341712594, 0.0012516644, 0.0743269548, 0.4641830027, -0.0290520433, 0.0154681243, 0.0657298118, 0.3347532451, 0.1608823091, 0.0057871649, 0.0665957108, 0.0024265884, -0.0013475030, 0.2823671699, 0.1523035616, -0.0013463109, 0.7856821418, -0.0269367341, 0.0015006572, 0.0005476233, 0.0933958665, -0.0855154693, 0.0000242184, -0.0008054014, 0.0023239295, -0.3280249238, 0.4364612997, -0.0222055577, -0.0930229649, -0.0319175497, 0.0000915838, -0.0008366469, 0.0005969858, -0.0003235646, 0.0006629732, -0.0015236513, -0.0000231810, -0.0006217893, -0.0002755494, -0.2324063629, -0.0020473839, -0.0001899888, 0.0000536706, 0.0056825150, 0.0305366907, -0.0000160244, 0.0342435166, -0.1284623146, -0.1247352287, -0.0318597257, -0.0003006754, -0.2349049300, -0.1151707545, -0.0002256666, -0.0004097880, -0.0403657928, 0.0012385531, 0.0005636043, -0.0017983796, -0.0985710323, 0.0615641512, 0.0027526431, -0.0009236461, -0.2619215846, 0.0717734322, 0.0009382357, -0.0011800942, -0.0483798683, 0.0001725096, 0.0045671677, 0.2077660859, -0.1626838297, -0.0631265268, 0.0022912140, 0.1486442834, 0.0015403463, -0.5393021703, -0.2921730280, -0.0607684553, 0.2566712499, 0.1439806819, 0.0160226543, 0.0071548065, 0.0012010817, 0.0051083746, -0.0032897929, -0.0011371751, -0.0204674080, 0.0687306374, -0.0264566466, -0.0078040217, -0.0038693016, -0.2377562821, 0.0002176832, 0.0001535910, 0.2017037868, -0.1610796899, -0.1870338619, 0.0709064677, 0.1648905426, 0.0000203173, 0.0160848070, 0.0001857996, -0.0153396148, 0.0001053609, -0.2031993866, -0.0000244256, 0.0009335413, -0.0006779786, -0.0000192703, 0.0101680420, 0.1267283410, 0.1445170343, -0.2069127113, 0.0048113209, -0.0021732680, 0.0053727431, 0.0020593076, 0.0046381406, -0.1043715999, -0.0074197156, 0.1611198783, 0.1011892334, -0.0046077096, 0.0050822599, 0.0024862932, 0.0038260093, -0.0551294312, -0.0240307674, 0.0530122109, 0.0029379535, -0.0236088559, 0.1257453859, -0.0669264272, 0.0473152697, 0.0774530545, 0.0008441567, 0.0343905091, 0.0075768121, 0.0962863863, 0.1416207701, 0.0759694651, 0.0798374265, 0.0020298501, 0.2712869346, 0.0647742525, 0.2613158524, 0.1786349565, -0.0021282434, -0.1433560997, -0.0030898231, -0.0093556708, 0.0296899751, 0.1319893301, 0.0016496975, -0.1102303341, -0.0055396878, -0.0622543469, 0.0000586361, -0.0039232243, -0.1414175928, -0.0031868510, 0.0032134240, -0.2297014296, 0.0000588084, 0.0014159984, -0.0000914110, -0.4391713142, 0.0027865488, 0.1102069169, 0.0000013741, 0.0020602536, 0.0055771852, -0.0000330511, -0.0020076642, 0.0079318983, -0.0596750788, 0.0567589402, -0.1401122808, 0.0735490993, 0.1428273171, 0.0982195064, 0.0127442805, 0.1947794110, 0.0116832443, 0.0811513141, -0.0040219375, -0.0811292082, 0.1108308807, -0.0175893623, 0.3022638261, 0.0042080977, -0.0027563046, 0.0012823397, -0.0036577184, 0.0246668868, 0.0019294880, 0.1763429642, -0.0009053866, 0.0214518514, 0.0044966368, 0.1163781881, 0.0032876895, 0.1810625494, -0.1570888311, -0.2299033254, -0.0157999750, -0.0005326843, -0.0711693689, 0.0015833832, -0.0012927414, -0.0123517392, -0.2743049562, -0.0744569227, 0.0462027714, -0.0070735016, 0.1350504756, -0.0006723220, -0.4066319764, -0.1201072112, 0.1429207027, 0.0002091879, -0.0000870667, -0.1171439886, 0.1485543102, -0.3571799397, 0.0042193877, -0.1156184301, -0.0000002212, 0.0518620722, -0.0000392724, -0.0049389238, -0.0009295492, 0.0029208672, -0.0000202930, 0.2280547619, 0.0179335419, 0.0000044243, -0.1644512862, -0.0634059832, 0.0008160953, 0.0013665746, 0.1189585701, -0.0419570841, -0.1179785505, 0.1122514978, 0.0408971272, 0.0825116783, -0.1061812416, 0.1946651936, -0.0940496027, -0.0045944774, 0.0050823987, 0.0024887531, 0.0038190789, -0.0078408411, 0.1697577387, -0.0439426266, 0.0378135219, 0.0030962464, 0.2298004925, -0.0039723045, -0.0002136820, 0.0015462389, 0.0150355995, 0.0341310166, 0.0075859139, 0.0012324268, 0.0005947067, 0.0069034607, -0.0983469188, -0.0434303023, -0.3548081517, -0.0007602605, 0.0026245194, 0.0085150385, -0.0289972145, 0.1841792464, -0.0031158682, -0.0093196277, -0.2540885210, 0.2706721425, 0.0016503000, -0.1939569712, -0.2501786053, -0.4985566437, 0.0000774165, -0.0019323160, 0.0869803131, -0.0025777775, 0.0238650329, 0.0684514046, -0.0000064806, -0.0909489095, 0.0000284239, -0.1764243841, 0.0156533476, 0.0020963659, 0.0000173208, -0.0945011675, 0.0132640218, -0.0000130777, -0.0285032894, -0.0425343029, -0.1756800711, -0.2851105034, -0.0025113025, 0.2468666881, -0.1168531775, -0.0019903448, 0.0023082532, 0.1554399133, 0.0032222145, 0.0059543001, 0.0208211485, -0.2130463868, -0.1154278144, -0.0132602323, 0.0096844006, 0.3032089770, 0.0067002703, 0.0005741944, -0.1524307132, -0.0130646490, 0.0182299167, -0.3653665781, -0.1892760396, -0.0080414098, 0.0246475711, 0.0107997516, 0.2576642334, -0.0000294095, 0.0101563456, -0.3339188099, 0.0017369435, 0.0151555417, -0.3829281628, 0.2397844940, 0.0008936937, 0.3425991237, 0.0022459151, -0.1368307471, 0.0032262213, -0.2916877568, 0.0009557397, -0.2866276503, 0.0009315779, 0.2443286031, -0.0027029596, 0.0261653978, 0.0001707847, 0.1101644188, -0.0505808964, 0.0105742319, 0.3588327467, -0.0123430593, 0.0000227468, 0.0003701668, -0.0000668843, -0.1169176251, 0.0090383999, -0.0456556492, -0.0000520551, -0.2217307836, -0.0026741528, -0.0000095910, 0.1062624827, -0.1997345388, 0.1869325489, 0.1976635009, 0.2957873046, -0.0010169117, 0.0399908610, 0.1016488746, -0.0872766972, -0.0068529565, -0.0052170660, 0.0625713915, 0.2047375739, 0.2410743535, 0.0084647769, -0.0122356582, -0.0237937775, 0.0597808473, 0.0487063788, -0.0000851983, -0.0222465638, 0.0006841134, 0.0067360466, -0.0554912426, -0.2438249737, 0.0579499491, 0.0025392608, -0.0005278843, -0.1324083209, 0.0003611369, 0.0000521389, 0.2593729198, 0.1781259626, 0.0094150789, -0.0561309047, -0.2047125697, -0.0035135839, 0.0009985832, 0.0037922442, -0.0238517281, 0.1053196117, -0.0112550538, -0.1736919880, 0.0031271731, 0.0080270292, -0.0524833053, -0.1135789827, -0.3089932501, 0.0000895149, 0.1350680441, 0.0511773080, 0.1349067837, -0.0154227056, -0.0047570542, 0.0000207032, 0.0491486862, 0.0000108240, -0.0007765290, 0.0189887341, -0.0076808371, -0.0000458146, 0.0007628476, -0.0165176969, 0.0000066028, -0.2870999277, 0.2774845362, -0.0056253714, -0.0968926549, -0.0617037602, 0.2306379229, 0.1254088432, -0.4134115279, -0.2792255580, -0.1179912016, -0.0712298453, -0.1499628872, 0.0000875579, -0.0008079932, 0.0991094559, -0.1950974166, -0.6113055944, 0.0022375826, 0.0706042349, -0.0005315256, -0.0679813549, -0.0422467552, 0.0040515405, 0.0023237700, 0.0342321210, 0.0637749955, 0.0007828347, -0.0102028316, -0.2908061445, -0.0002487920, 0.1238309294, -0.0057912953, 0.0051082745, -0.1532321274, 0.2258662581, -0.0815269947, -0.6194218397, 0.0210995935, 0.1135929972, -0.0125010824, 0.0157633368, -0.4167411923, 0.0670316517, -0.0034622787, 0.1549748331, -0.1271642894, 0.1009687483, 0.0737185478, 0.0000250563, -0.2077822834, 0.1104197353, 0.0080062533, 0.0145474430, -0.0690671876, -0.0000080452, -0.1097489744, 0.0000050682, 0.1553219259, 0.0656291693, -0.0018214993, 0.0000173488, -0.2214431912, -0.2400148213, -0.0000211912, 0.0287529361, -0.0352142565, -0.2382188439, 0.0045245136, 0.0004619655, -0.0192888137, 0.1149904504, 0.0635026693, -0.1603455991, -0.2814159989, 0.0041451445, 0.0795617178, 0.0080543095, 0.2570253909, 0.0034751499, -0.1263179779, 0.0020918660, 0.0013241770, 0.1137524694, 0.0006189507, -0.0002469475, 0.2739556432, 0.0077682226, -0.2342212647, -0.5227921605, -0.1293864101, 0.0009959113, 0.0000508255, -0.0645429194, 0.0149950525, -0.1705272794, 0.2501970530, -0.0009552803, 0.0066715386, -0.0346840657, -0.0919659957, -0.0029603902, 0.0117129032, -0.2157108337, -0.0227645654, 0.1953558922, -0.1261447370, 0.1207876354, 0.3405883312, -0.1102816537, 0.1748884916, -0.0007811913, 0.0015820261, 0.0000398168, -0.0974801555, -0.2068087906, -0.0016539895, 0.0042251339, -0.0037181005, -0.0000183295, -0.3679720163, -0.0001010363, -0.0748786926, 0.0067089731, 0.0712514594, -0.0000337398, 0.0035294434, 0.0626175776, 0.0000185051, -0.0310081635, -0.0474591851, 0.1638983488, 0.0091788257, 0.0010285922, -0.1222706288, -0.2557582557, -0.0038206629, 0.0557851084, -0.0199380461, 0.0064798202, 0.0007298642, -0.0019919674, -0.0051774513, 0.0021449663, -0.0125376852, 0.0041871048, 0.0025138059, -0.0425612554, 0.0009848709, 0.0709781945, -0.0010808173, 0.0035781572, 0.0869436264, 0.4068655074, 0.0028881130, 0.1168310270, -0.0655629411, 0.1756256372, 0.0020497169, 0.0013115641, -0.0060292543, -0.0775313303, 0.0011742066, -0.0388046876, -0.0007032013, 0.0007073228, 0.0044020200, 0.0025692193, 0.0000104737, 0.0054039527, -0.1667405218, -0.1323865801, -0.1776533574, 0.0035262355, 0.0007876903, 0.0018674145, -0.3234629035, 0.0001844642, -1.2842054367, 0.0293628015, -0.0011382902, 0.1379187256, 0.3486858308, -0.0000432795, -0.6947906613, -0.0000023176, 0.4601575434, -0.6617603898, 1.1676831245, -0.0000871416, 0.0008400987, 1.1728649139, 0.0000265541, -0.2284579426, 0.9955321550, -1.2033953667, -0.3335540295, -0.0004514820, 1.2603313923, -0.7092418075, -0.2324560732, 0.1018995047, 0.3172158003, 0.1524244100, 0.3996921480, -1.5338642597, -0.4597189724, -0.1059627086, 0.0030324052, -0.1915086210, 0.2991249859, 0.9478727579, 0.5333929062, -0.3801729977, 0.0009930908, 0.3041920662, -1.0761828423, -0.3467183709, 0.0020064060, -0.4281747043, 0.9531850815, -0.6925354004, 0.0020300271, 0.5557977557, -0.0042415299, 1.7832347155, 0.1306902319, -0.1576534957, 1.1522586346, 0.0012599349, 0.5860790014, 0.0009154103, 0.0709647983, -0.4182106555, 0.1771260947, -0.2172238678, 0.2249405980, -0.1287392825, 0.1814723909, 0.4689435959, 0.0082340324, -0.0001897858, 0.0333431549, -0.2128537744, -0.0033309625, 0.6180237532, -0.0163721405, 0.0000095548, -0.0023761052, 0.0001569436, -0.0027213753, 0.3188891709, 0.0933191627, -0.0001225802, 0.0093978355, 0.0437896959, -0.0000174722, 0.0534146577, -0.1461036950, 0.0006944347, -0.0664801300, -0.2389989346, -0.1358275115, -0.0231015142, 0.2902712226, -0.0007975531, 0.5373689532, -0.2675800920, -0.0466163345, -0.3098504543, 0.1715570390, -0.8072116375, -0.2294723243, 0.0169295575, -0.0009459463, 0.0141867911, -0.0028035732, 0.2609158158, 0.0195040889, -0.0892244652, 0.0681975260, 0.3304196000, -0.1456847042, -0.0029506290, -0.5605599880, -0.2701429427, -0.2339949757, -0.1797432750, -0.2770915329, -0.1259126812, -0.0411006995, 0.0055357106, 0.0511148907, 0.0115190195, 0.0341101401, -0.1797596961, -0.2563693523, -0.0006878563, 0.0089745112, 0.4633660913, 0.0834297836, 0.0000903019, 0.1640417725, -0.1122403145};

#endif

#endif
