//Numpy array shape [32, 32]
//Min -1.790456533432
//Max 0.892298936844
//Number of zeros 0

#ifndef W8_H_
#define W8_H_

#ifndef __SYNTHESIS__
model_default_t w8[1024];
#else
model_default_t w8[1024] = {-0.0005708457, 0.0019912282, -0.0008320982, -0.0713157430, -0.0265428685, -0.1684024483, -0.0001051127, 0.0017722568, 0.2968859375, -0.0042011607, 0.0002020977, 0.0054724184, 0.0641852319, 0.0259910002, 0.1102583483, 0.0042907782, -0.0006953628, -0.0006643763, -0.2289168239, 0.0088871978, 0.0029278020, 0.0000766873, 0.0106721353, 0.0011628793, 0.3158083260, 0.0033355400, -0.2914044857, -0.3046803772, 0.2601543963, -0.0012059212, -0.0051704072, 0.2435247302, -0.0004489595, -0.0013905187, -0.0025427847, 0.0008688472, -0.1831086576, 0.3449102342, 0.0001510732, 0.0548122004, -0.0005441936, -0.0078623518, 0.0001312494, -0.0013391967, 0.0001690896, 0.0012512588, 0.0007777148, -0.0003153659, 0.0012412582, -0.3710101545, 0.2036788017, 0.0062961476, 0.0008489544, 0.0000554960, 0.1116528660, 0.0028650570, 0.0003575443, 0.0018798895, -0.0008649642, -0.0077511459, 0.0001793282, 0.1156506464, 0.0002857766, 0.0008875728, -0.0000757465, 0.0023789604, -0.0000369808, 0.0028767274, 0.0004398344, 0.0016807520, -0.0000552307, 0.0007177194, -0.0009886073, 0.0009190855, 0.0001677644, -0.0012438807, 0.0560810529, 0.0001743819, -0.0003954825, 0.0487941839, 0.0001593999, 0.0837948099, 0.0000057534, -0.0005912600, 0.0010254285, -0.0000216211, 0.0690824687, 0.3629133105, 0.0708381906, 0.0005368898, -0.0011945040, 0.0004788227, -0.0005294409, 0.0000106911, 0.0013340394, -0.0004139275, 0.0008950011, 0.2668815255, 0.2216511816, -0.1512664855, 0.0776068419, 0.1027821228, -0.0000152330, -0.4518653750, 0.0584217012, 0.0004608453, -0.0001323331, 0.0496933460, 0.0019189561, -0.3490097821, -0.7318701744, 0.2615326941, 0.2582707703, 0.4265032113, -0.2027227283, 0.2333270311, -0.0011946852, 0.0002540880, -0.0700779334, -0.1956943870, -0.2114902437, 0.2231706381, 0.0604262501, 0.3026256561, 0.0208732001, -1.0650409460, 0.0008587103, 0.0106767174, 0.0027792922, 0.2166138291, 0.1040102541, 0.0027542666, 0.2284434885, -0.1534459442, 0.0000334956, 0.1032281443, -0.2259846181, 0.1683586389, -0.0000655823, 0.0117710168, -0.0002613230, 0.1912126243, 0.0001702614, -0.0650267079, 0.0013981387, -0.2132432908, -0.0034185345, -0.0011398280, -0.7225365639, 0.0000905774, 0.1200471818, 0.0005424155, 0.1379903704, -0.7354158759, 0.2418162078, 0.1964945644, -0.0542097762, 0.0003937199, 0.0030721214, -0.0010750191, -0.0019968331, 0.0270868074, -0.0067937295, 0.0023543367, -0.1288518310, 0.3653851151, -0.0000377575, 0.0000807988, 0.4571676254, -0.1239367500, -0.0002298216, -0.2072743922, -0.0024154636, -0.0004585797, 0.0001398188, 0.5025981069, 0.0005936484, -0.0025511896, -0.0000057199, -0.0024035787, -0.0004653299, 0.0000091086, -0.0971051976, -0.0018529787, 0.0006627460, -0.0007676829, -0.0584893897, -0.0015585171, 0.1163331643, -0.0006380435, 0.0007946487, 0.2916711867, 0.0002673712, 0.0261808429, -0.0399236418, 0.0023631661, -0.2351132035, 0.0037844507, 0.0000871987, 0.0211495962, 0.2095330805, -0.1936538815, -0.0001117605, -0.0007306319, -0.0011212953, -0.0793397799, -0.0001142317, -0.0036775842, -0.0006713374, 0.0022426748, -0.0008969258, -0.0032605021, 0.0007276899, -0.0000319009, -0.0026952801, -0.0004550297, -0.0013391420, -0.0003891814, -0.0353509299, -0.1694830060, 0.0008686499, 0.0002554365, 0.0038236929, 0.0009075633, -0.0003102390, -0.0289341137, -0.8936936259, 0.0184770878, 0.1344958544, -0.0007777428, -0.0000822387, 0.0759280697, -0.0008880208, 0.4631247818, 0.0001440158, -0.1003823280, 0.0043736799, 0.1071919650, 0.3092578948, -0.8071315885, -0.8730102777, 0.3488722742, -0.0339094885, -0.6652247310, 0.2182381600, -0.0001073234, 0.1187121049, 0.0745327920, 0.1209294647, 0.3704225719, -0.9471220374, -1.2499011755, 0.3273370862, 0.4167441130, 0.1017538160, 0.0432428680, -0.0028500769, 0.1800759435, 0.0002389700, -0.0015942797, 0.4257325232, -0.5127316117, -0.0001412490, -0.1152111813, 0.0018878039, 0.4116237760, -0.0001283560, 0.0027647391, 0.3417224884, 0.0845673829, -0.0149045670, -0.0989037603, -0.2458445579, 0.1547433436, -1.1337331533, -0.0018252695, -0.0032682556, 0.0000077980, -0.0332525671, -0.0043299301, -0.0003788497, -0.0551639907, 0.4411095679, 0.1468704939, 0.3557441235, -0.0561717339, 0.0029394659, 0.4576385915, 0.0011349021, -1.7904565334, -0.0008434432, -0.1870435625, -0.2985870838, -0.0454976559, -0.0001072791, 0.4535925388, 0.0004346414, 0.0033227499, 0.0000840761, -0.0065466464, 0.3558282554, -0.0003197029, -0.0021947704, -0.0030827764, 0.0150851365, 0.4029732347, 0.1196611151, 0.4158938527, -0.3801046908, -0.0001664976, -0.8403884768, -1.0539262295, 0.0185217243, -0.5148474574, 0.0743442252, -0.0055539049, 0.3005526066, -0.0957810953, 0.0265740026, 0.2297792286, -0.0007108536, 0.0727477297, -0.0855844319, 0.4841914773, -0.1452799439, 0.0002795961, -0.0000151684, 0.1439376175, -0.0021562963, 0.1003077179, 0.0000021866, -0.0081861671, -0.0012043569, 0.2678347528, -0.0003673834, -0.0019827019, -0.0570335649, -0.2188006043, -0.1472295970, -0.0589632131, 0.0007407687, 0.0000109036, -0.0027541211, 0.0027374234, 0.0017500363, 0.0126443962, -0.0010262583, 0.1110100895, -0.0001590865, 0.0001493567, -0.3458147645, 0.1232907102, 0.0000326992, 0.0001844288, 0.0000994765, 0.0001563477, 0.0000591763, 0.0001547314, -0.0000413432, -0.0001689985, 0.0000018342, -0.0000790319, 0.0000221998, 0.0001498178, -0.0000603327, -0.0000398934, -0.0000120646, 0.0000241134, 0.0001280406, -0.0000342158, 0.0001015843, -0.0000566794, 0.0001687755, -0.0001230218, -0.0001748469, -0.0001338607, -0.0000071018, 0.0000730005, 0.0001874610, 0.0000930084, 0.0000215824, -0.0000324257, -0.0000526082, 0.0000623552, 0.0007616886, -0.1610033363, -0.0814975500, 0.0920894369, -0.3533481061, 0.0984318480, 0.0000146670, 0.1778872758, -0.0010098007, 0.0895413980, 0.0000103236, 0.0285549723, -0.0014281196, 0.1820531338, 0.2013712078, 0.0633098707, -0.0140879015, 0.0023263462, -0.0050204638, -0.0030728325, -1.1986138821, -0.0000179433, 0.0737410411, 0.0044182530, 0.0000454704, -0.0751760304, -0.2807798982, -0.0817387402, -0.0002208780, 0.0007592919, 0.0043155961, 0.1852090657, 0.0005704460, 0.1829629391, 0.0274615660, 0.0685444549, 0.0120213227, 0.0275716707, 0.0000287080, -0.0008072735, -0.0019366980, 0.0005627018, -0.0000453510, -0.0016554412, -0.0012625969, 0.0268090758, 0.0011682039, -0.3599038124, 0.0590784959, -0.0585703962, 0.0012324374, 0.0271472372, -0.0009729161, 0.0000236980, 0.2925170660, 0.0056537553, -0.0004589541, 0.0030595229, -0.0022768111, 0.0005797905, -0.0013752662, 0.0013909716, -0.2602868676, 0.0038865043, 0.2057727426, 0.0088403802, 0.3697916269, -0.3557663262, 0.2663104534, -0.2257127613, 0.0000235670, -0.2588446736, 0.2715112269, 0.0003395698, -0.0000616020, 0.1197580844, 0.0113298986, -0.0228843875, -0.0041444455, 0.0010792672, 0.2237611860, 0.4553077221, -0.3200603724, 0.0936061218, -0.0016119434, 0.0000173937, -0.1327881068, -0.0000570769, -0.0003792849, -0.0050378963, 0.0007584751, -0.0055952342, 0.0007871973, -0.0045484090, 0.4006233811, -0.0023727508, 0.0002356872, 0.0053107617, -0.0005090745, 0.0720209852, 0.1715153009, -0.0008647679, -0.0002874701, 0.0021307552, -0.0045996499, 0.0008170264, 0.0001305958, -0.0018363328, -0.0001505601, 0.0022551389, 0.0018285518, -0.0062358365, 0.0008434760, -0.0014574269, 0.0007867833, 0.0015674167, 0.0006047315, -0.0000522223, 0.1901297420, 0.1524881870, 0.0000923437, 0.0009908874, 0.0025805051, 0.0015237597, -0.0017638311, 0.0021815605, 0.0005687380, -0.0010059628, 0.0009954917, -1.2124809027, -0.0012577403, 0.0022084608, -0.0939358696, -0.3296533823, 0.0000754513, 0.8759175539, 0.0011301091, 0.0032041541, -0.0000167323, 0.1301265508, 0.0531521998, 0.0114063323, 0.0003018770, -0.0715997443, -0.0038472998, 0.2835052907, 0.6840349436, 0.4188475609, -0.0051824814, -0.0002940754, -0.6997798085, -0.1849867254, 0.0020674395, -0.4296063781, 0.0682172850, -0.1979493797, 0.0091960123, 0.0003772702, 0.3932477832, 0.0040055704, -0.0002403731, -0.0000558095, -0.0000955170, -0.0000463688, -0.0000471729, 0.0001196795, -0.0000885233, -0.0001331035, 0.0000092536, -0.0000781293, -0.0000973208, -0.0000014033, 0.0000303895, 0.0000329488, -0.0002016593, 0.0000723523, -0.0001588019, -0.0001717189, 0.0001389895, -0.0001718403, 0.0002705600, -0.0000382618, -0.0002588771, 0.0000972025, 0.0001385968, -0.0000539450, -0.0001079815, -0.0000079256, -0.0000016073, 0.0000471056, 0.0000012646, 0.0001119283, -0.0009735465, 0.0198578853, -0.0024930455, 0.0008884041, -0.1556995660, 0.2221628428, -0.0000356452, 0.0239526797, 0.0013787427, 0.0008770186, 0.0000909536, -0.0014248664, 0.0005668260, 0.0018626167, 0.0002654627, -0.0006493750, -0.0002270898, -0.0004315333, 0.1483449787, 0.0785550326, 0.0673032179, -0.0001231041, 0.0007210393, 0.0520382337, 0.0393490009, -0.0002695725, -0.0002993040, -0.0845313072, 0.0620104261, 0.0010258871, 0.0004333755, 0.3226756454, -0.0026606710, 0.2655471265, 0.3359563351, -0.1918036938, -0.6044219732, 0.4434783459, 0.0000365212, -0.0047111264, 0.3664005399, -0.6256700158, -0.0001393199, -0.0011571291, 0.0020615184, -0.4005434811, -0.3820657730, 0.8922989368, 0.3665460348, 0.0030927497, -0.0080821915, 0.1117162704, 0.2877620161, -0.0000851561, -0.1554443091, -0.4157779515, -0.0007602897, -0.0246692356, 0.2405059189, 0.7723724842, 0.0012159313, -0.0035748607, 0.0000473215, 0.0031638842, -0.0024967156, -0.2991534472, 0.0005672525, -0.0004724056, 0.0049303072, -0.0843200088, -0.0001166901, -0.0288077332, 0.0000018053, 0.0343545787, 0.0001124035, -0.0042109862, 0.0008579069, -0.0003870013, 0.0012890056, 0.2326437533, 0.1981648505, 0.3406592309, -0.2456614226, -0.0026318186, -0.0002016146, -0.0000783351, 0.0038707540, 0.0032606078, 0.0000967480, 0.0002325014, -0.0035922772, -0.0005738852, -0.0006234289, 0.0002048193, 0.1013361961, -0.0023892322, -0.0000997309, 0.0000350022, -0.0001343357, 0.0000311649, 0.0000142757, -0.0000152954, 0.0000223644, -0.0000282901, -0.0000268639, -0.0001219430, -0.0000034446, -0.0000122982, 0.0000163705, -0.0000078631, -0.0000046238, -0.0000270792, 0.0000508380, 0.0000170409, 0.0000150902, 0.0000293964, 0.0000367507, 0.0002802184, -0.0000114077, 0.0000029659, 0.0000334486, -0.0000012020, 0.0000050974, -0.0000198521, -0.0000148275, 0.0000691360, 0.0000256168, 0.0000090703, -0.0013320602, 0.0955860168, -0.0005770334, 0.0966711268, -0.0634469166, 0.6276817918, -0.0000181459, -0.0097879618, 0.1781083792, -0.0532659926, -0.0001366082, -0.0180413201, 0.0011148122, -0.0125042778, 0.3148389757, 0.3479495049, 0.0011324551, 0.0012836441, 0.4989558458, -0.0343473591, 0.3792088032, 0.0002428434, 0.0320339724, 0.1620229930, -0.1678732634, -0.0037203368, 0.0424494296, 0.3324260414, 0.0005320627, 0.1924333274, 0.4424653053, -0.4218322039, -0.0004114487, -0.0004011696, 0.0005609223, -0.0006227021, -0.0333672278, 0.3775307536, -0.0000517545, 0.0341713950, -0.0003256262, -0.0025616635, 0.0001510747, -0.1075599939, -0.0121153230, -0.0011425521, 0.0012780899, -0.0004760569, 0.0022387586, -0.0003373355, 0.0577098392, 0.0055240910, -0.0000495486, 0.0000572376, 0.0012677048, 0.0051155090, 0.0005846918, -0.0003429938, -0.0020009016, 0.0012870214, -0.2434363514, 0.0008165596, 0.0009245353, 0.0004607165, 0.0663572252, 0.3881213069, 0.0991398767, -0.1486196816, 0.1084003374, 0.3400975466, -0.0000543405, -0.7823403478, 0.1423082203, -0.1222445518, 0.0001415126, 0.4351268113, -0.0005875052, -0.3909454644, 0.0022436667, 0.0002978373, 0.2720735967, -0.0002354853, 0.0404060259, 0.0006849990, -0.0146652209, -0.0000322723, 0.3608355224, 0.0117215710, -0.2170196027, -0.0047169621, -0.0069033015, -0.0061304197, -0.0019413616, 0.0033712152, -0.0017413970, -0.1036376879, -0.0203283038, 0.0009838401, -0.0014519348, 0.3774626553, -0.0005591713, 0.2325310111, 0.0000061885, 0.6973438859, -0.0005079322, 0.0000794899, -0.0001987122, -0.4268015921, -0.0817866549, 0.1646141708, 0.1098332033, 0.4576607645, -0.0144709833, -0.0002721488, 0.2927539051, -0.1937887073, 0.0357191935, 0.0000024798, 0.0031054176, 0.1725121588, -0.0011534995, 0.0815939829, 0.0343037210, 0.0313262083, -0.0008174269, 0.2366844267, 0.1019819081, -0.0922756940, 0.0010063061, 0.0222170241, 0.0508932434, 0.4169062674, 0.2222058475, -0.1533741504, 0.0000319657, 0.0735559464, -0.1178559363, 0.0854065344, 0.0001909376, 0.2615520358, -0.0005530944, 0.2719817460, -0.0006791371, -0.3186080456, -0.1895546913, -0.0049265623, -0.1064162031, -0.0138604930, 0.0056494782, -0.0001635651, 0.2593338788, 0.0203208812, 0.1290003061, 0.0009622511, 0.1214739978, 0.0087610092, -0.0018199539, -0.0003753619, -0.1391413212, 0.2853482366, 0.0001285115, 0.1324071586, 0.0247481056, 0.0011717535, 0.1925261468, 0.1321284026, 0.0000271066, 0.0207917225, 0.0615286715, -0.0085880784, 0.0001390798, 0.1077147648, 0.0027249907, -0.0019366748, -0.6127799153, 0.0010686722, 0.1020787060, 0.0291808080, -0.0062495321, 0.1822518110, -0.0003659729, -0.0000347289, -0.3423974514, -0.4686442316, 0.0003352074, -0.0033294638, 0.0144249443, -0.0016629227, 0.1430396587, -0.4643757045, 0.0016413494, 0.1455966979, -0.0002285436, -0.0028779679, -0.0014433770, -0.0040253955, 0.0026290815, -0.1438438445, -0.0000613958, -0.0800759122, 0.0021009210, 0.0016385632, -0.0000474106, 0.0035532149, 0.0047042854, 0.0003428305, 0.0283974223, 0.0018317511, 0.0003812205, 0.4540283084, -0.0004559338, 0.0003622748, 0.0020753595, -0.0000715539, 0.0519610383, 0.1753171235, 0.0012885948, 0.0024766380, -0.0006578879, -0.9679301381, 0.1141503155, -0.0015300524, -0.0012210987, 0.0033316002, 0.0018843994, 0.0004349052, 0.1379554719, -0.0892559811, 0.0031128335, 0.1441403180, 0.0000506250, 0.0000476720, -0.0017737114, 0.0020636772, 0.0000026285, 0.0022147731, -0.0007847720, -0.1655627340, 0.0002326646, -0.0589868203, 0.0539045706, 0.0506343581, 0.0004098848, -0.0014363814, 0.0002039221, -0.0000650552, 0.0011134204, 0.0000047440, -0.0007524613, -0.0013159623, 0.0002226030, -0.0008483595, 0.0005562792, 0.0007397677, 0.0796112269, -0.0018803204, 0.0202901661, -0.1115403250, -0.0661771297, 0.0034500172, 0.1406115294, 0.0023667426, 0.0000176279, -0.0003957403, 0.1280298084, 0.0485938042, -0.0000139562, 0.0006254221, -0.0011505232, -0.0013870954, -0.0008394777, -0.1714407802, 0.0003029754, 0.2378637791, -0.0006327698, -0.0014112473, -0.0016444454, 0.0001422385, 0.0980537385, 0.0033050999, -0.0011498709, 0.0165202450, -0.1871585399, -0.5263472199, 0.1994374841, -0.0000560883, 0.1115861833, -0.0008240904, -0.0021092778, 0.0958510712, 0.0021565275, 0.1446545273, -0.0003632180, 0.6169622540, -0.0000473974, -0.1523241997, -0.0017011181, -0.0003117644, 0.0003338077, 0.0007102625, -0.3093463182, -0.0002856995, 0.0022859538, 0.2947043777, 0.0007738634, -0.0025241654, 0.2150241584, -0.0047481414, 0.1331709325, -0.0002552663, 0.0047419444, 0.0413457677, -0.0015590577, 0.0766162053, 0.0100588221, 0.1557943076, -0.1428735256, 0.0021963045, -0.0006996727, -0.2308554947};

#endif

#endif
