//Numpy array shape [32, 5]
//Min -1.319834351540
//Max 1.083910346031
//Number of zeros 120

#ifndef W11_H_
#define W11_H_

#ifndef __SYNTHESIS__
model_default_t w11[160];
#else
model_default_t w11[160] = {-0.0000000000, -0.0000000000, 0.0000000000, -0.4598724246, 0.8095596433, 0.0000000000, -0.0000000000, 0.0000000000, 0.0000000000, 0.7502158284, 1.0839103460, -0.0000000000, 0.0000000000, -0.6099980474, -0.0000000000, -0.0000000000, 0.5533468723, 0.0000000000, -0.5475271344, -0.0000000000, 0.0000000000, -0.0000000000, 0.0000000000, -0.7126162648, 0.7153239846, -0.0000000000, -0.0000000000, 0.0000000000, 0.0000000000, -0.8638074994, -0.6725575924, 0.0000000000, -0.0000000000, -0.0000000000, 0.0000000000, 0.0000000000, -0.0000000000, 0.0000000000, 0.6978537440, -1.2694343328, -0.0000000000, -0.4173504114, 0.0000000000, -0.0000000000, -0.0000000000, 0.0000000000, -0.0000000000, 0.0000000000, -0.0000000000, -0.5307449698, -0.0000000000, 0.0000000000, 0.0000000000, -0.4925335646, -0.0000000000, -0.0000000000, 0.0000000000, -0.7615304589, -0.0000000000, -0.0000000000, -0.0000000000, -0.0000000000, 0.0000000000, 0.0000000000, -0.5080696344, 0.0000000000, -0.0000000000, 0.0000000000, 0.0000000000, -0.6455737352, -0.0000000000, 0.0000000000, -0.3808815479, 0.6039806604, -0.0000000000, -0.0000000000, 0.0000000000, 0.0000000000, -0.6754869223, -0.0000000000, 0.0000000000, -0.0000000000, 1.0353901386, -0.0000000000, -0.0000000000, -0.0000000000, 0.0000000000, 0.0000000000, -0.0000000000, -0.0000000000, -0.0000000000, 0.0000000000, 0.0000000000, -0.0000000000, -0.7644633055, 0.0000000000, -0.0000000000, 0.0000000000, 0.0000000000, -0.0000000000, -0.8011748195, 0.0000000000, 0.0000000000, -0.0000000000, -0.0000000000, -0.0000000000, -0.0000000000, 0.0000000000, -1.1008849144, -0.0000000000, 0.5807211995, -0.3762851655, 0.0000000000, -0.0000000000, -0.0000000000, 0.0000000000, -0.0000000000, 0.0000000000, 0.0000000000, -1.1609703302, -0.0000000000, 0.0000000000, 0.0000000000, -0.4946976006, -0.9539712071, -0.5646770597, -0.5991182923, 0.0000000000, -0.0000000000, -0.0000000000, -0.0000000000, -0.4542943239, 0.0000000000, 0.4893470109, -0.0000000000, 0.0000000000, 0.0000000000, 0.0000000000, -0.4171291590, -0.0000000000, 0.0000000000, -0.0000000000, 0.0000000000, -0.4596319199, 0.8249489069, 0.0000000000, 0.0000000000, -1.0169783831, -0.0000000000, -0.0000000000, -0.0000000000, -0.0000000000, 0.0000000000, -0.0000000000, -0.0000000000, 0.0000000000, -0.0000000000, 0.0000000000, -1.3198343515, -0.0000000000};

#endif

#endif
