//Numpy array shape [16, 64]
//Min -1.567172765732
//Max 1.331543445587
//Number of zeros 768

#ifndef W2_H_
#define W2_H_

#ifndef __SYNTHESIS__
model_default_t w2[1024];
#else
model_default_t w2[1024] = {-0.0000000000, 0.0000000000, -0.0000000000, -0.0000000000, 0.2870138884, -0.0000000000, 0.4573938847, -0.4690879285, -0.0000000000, -0.0000000000, -0.0000000000, -0.0000000000, 0.0000000000, 0.0000000000, 0.0000000000, -0.0000000000, 0.3331103623, -0.0000000000, 0.0000000000, -0.2745803595, 0.0000000000, -0.0000000000, 0.0000000000, 0.2434823662, 0.0000000000, -0.0000000000, 0.0000000000, 0.2785690129, 0.0000000000, 0.0000000000, 0.0899629071, -0.0000000000, 0.0000000000, -0.0000000000, -0.0000000000, -0.0000000000, -0.5267983079, -0.1501907408, -0.0000000000, -0.0000000000, 0.1467760950, -0.0000000000, 0.0000000000, -0.0000000000, -0.0000000000, 0.0000000000, -0.0000000000, -0.5212590694, 0.0000000000, 0.4260406494, -0.0000000000, 0.1894759983, -0.0000000000, -0.0000000000, -0.0000000000, 0.0000000000, -0.0000000000, -0.0000000000, 0.0000000000, -0.0000000000, 0.0000000000, 0.0000000000, 0.7761819363, -0.0000000000, 0.0000000000, -0.0000000000, 0.0000000000, 0.0000000000, 0.0000000000, -0.0000000000, 0.3336593509, 0.0000000000, 0.0000000000, 0.7012780905, 0.0000000000, 0.0000000000, -0.0000000000, -0.0000000000, 0.4582125247, 0.0000000000, 0.0000000000, 0.0000000000, 0.8817073107, 0.0000000000, 0.0640212446, 0.1707380265, -0.0000000000, 0.0000000000, -0.0000000000, 0.0000000000, -0.4534337819, -0.0000000000, -0.0000000000, -0.0000000000, 0.6836454868, 0.0000000000, 0.0000000000, -0.0000000000, 0.4766432047, 0.7300266027, -0.0000000000, -0.0000000000, -0.0000000000, 0.0000000000, 0.0000000000, 0.0000000000, -0.0000000000, 0.0000000000, 0.0000000000, -0.0000000000, -0.0000000000, -0.0000000000, -0.0000000000, -0.0000000000, 0.0000000000, 0.0000000000, 0.0000000000, -0.0000000000, -0.0000000000, -0.0000000000, -0.2608045936, 0.0890002325, -0.0000000000, 0.0000000000, -0.0000000000, -0.0000000000, -0.0000000000, 0.0000000000, -0.0000000000, -0.0000000000, 0.5103520155, -0.0000000000, -0.0000000000, 0.0000000000, 0.7235914469, 0.4370793402, 0.0000000000, 0.0000000000, -0.2683398426, -0.3120285571, -0.5154714584, -0.0000000000, 0.0000000000, 0.6600362659, -0.4573664963, 0.0000000000, -0.0000000000, -0.0000000000, 0.0000000000, 0.7668225765, -0.0000000000, 0.4185009599, -0.0000000000, 0.6406618953, -0.0000000000, -0.0000000000, -0.0000000000, -0.0000000000, 0.3761406243, 0.0000000000, -0.0000000000, 0.0000000000, 0.0000000000, -0.0000000000, 0.0000000000, 0.1835737675, 0.0000000000, -0.0000000000, 0.0000000000, -0.0000000000, -0.0000000000, -0.0000000000, 0.0000000000, -0.0000000000, 0.0000000000, 0.0000000000, -0.4973799884, -0.0000000000, 0.0000000000, -0.0000000000, 0.0000000000, 0.0000000000, 0.0000000000, 0.0000000000, -0.0000000000, 0.0000000000, -0.0000000000, 0.3545725942, -0.4481352568, -0.0000000000, -0.0000000000, 0.6972994804, 0.1418670565, 0.2180595845, 0.6757423282, 0.5554490089, -0.0000000000, -0.2998915911, -0.0000000000, 0.0000000000, -0.1991112679, 0.0000000000, 0.0000000000, -0.3353279233, -0.8517863750, -0.5013360977, 0.0000000000, 0.4904025495, -0.0000000000, 0.0000000000, -0.5940873027, 0.0000000000, 0.0000000000, 0.0000000000, -0.6431063414, -0.0000000000, -0.5154443383, 0.0000000000, -0.0000000000, -0.0000000000, -0.0000000000, -0.0000000000, -0.2134753317, -0.5018291473, -0.4265748560, 0.0000000000, 0.0000000000, -0.0000000000, 0.0000000000, 0.0000000000, 0.0000000000, -0.0000000000, 0.0000000000, 0.0000000000, -0.7100216746, 0.0000000000, 0.0000000000, 0.5620645881, -0.7070361376, 0.0000000000, -0.4707921147, -0.4936107099, 0.0000000000, -0.0000000000, 0.0000000000, 0.0000000000, -0.1713999808, -0.2765412629, -0.0000000000, 0.0000000000, -0.0000000000, -0.5406094790, -1.1547330618, 0.8437469006, -0.0000000000, 0.7438355684, -0.0000000000, -0.0000000000, -0.0000000000, -0.0000000000, -0.0000000000, 0.0000000000, 0.0000000000, 0.0000000000, 0.6104441285, 0.0000000000, 0.0000000000, -0.0000000000, -0.0000000000, -0.6937666535, -0.0000000000, 0.4850528836, 0.0000000000, 0.3191863596, -0.0000000000, -0.5563088655, 0.0000000000, 0.0000000000, -0.0000000000, -0.0000000000, -0.0000000000, 0.0000000000, 0.4570969045, -0.0000000000, -0.0000000000, 0.0000000000, -0.0000000000, -0.0000000000, -0.4770351648, -0.4316801429, 0.0000000000, -0.0000000000, 0.0000000000, 0.1020862088, -0.0324835964, -0.0000000000, 0.0000000000, 0.4918867350, -0.0000000000, -0.5549052358, -0.0000000000, -0.0000000000, -0.0000000000, 0.0000000000, -0.0000000000, -0.0000000000, -0.0000000000, -0.0000000000, 0.6223935485, 0.5807011127, -0.0000000000, 0.0000000000, -0.4305991828, 0.0922533125, -0.8892711997, 0.3073331118, -0.0000000000, 0.3114226460, -0.0000000000, -0.0000000000, -0.0000000000, -0.3044305146, -0.0000000000, -0.3038258255, -0.2897074521, 0.0000000000, -0.0000000000, -0.0000000000, -0.0000000000, 0.0000000000, 0.0000000000, -0.0000000000, -0.3005906045, 0.0000000000, 0.0000000000, -0.3832985461, 0.0000000000, 0.0000000000, -0.0506681949, 0.0000000000, -0.0000000000, -0.0000000000, -0.0000000000, -0.2807577848, -0.2557839751, -0.0000000000, -0.0000000000, -0.0000000000, -0.0000000000, 0.3350343108, -0.0000000000, -0.5179636478, -0.0000000000, 0.0000000000, 0.0000000000, -0.0000000000, 0.0000000000, -0.3279503882, -0.0000000000, -0.0000000000, 0.0000000000, 0.0000000000, -0.2687974870, 0.2495491803, 0.4332347214, 0.0000000000, -0.0000000000, 0.0000000000, -0.0000000000, -0.0000000000, 0.0000000000, -0.0029398024, 0.4802705646, -0.0000000000, -0.0000000000, 0.0000000000, -0.0018970008, -0.3388656080, -0.0000000000, 0.0000000000, -0.3102375865, -0.0000000000, -0.0000000000, 0.6131281257, 0.0000000000, -0.0000000000, -0.0000000000, 0.0000000000, -0.0000000000, -0.0562383570, 0.3778028488, 0.0000000000, 0.0000000000, -0.0000000000, -0.0000000000, -0.0000000000, -0.0000000000, 0.0000000000, -0.0000000000, 0.0000000000, 0.0000000000, -0.0000000000, 0.0000000000, 0.3452909887, 0.0000000000, -0.0000000000, -0.4147498012, 0.0000000000, 0.0000000000, -0.0000000000, 0.0000000000, 0.0000000000, 0.1024534255, 0.0000000000, 0.0000000000, -0.0000000000, 0.0314905196, 0.0000000000, -0.0000000000, 0.0000000000, -0.0000000000, 0.0000000000, -0.0000000000, -0.2800281346, -0.0000000000, 0.0000000000, 0.0000000000, 0.0000000000, -0.0000000000, 0.0000000000, -0.0000000000, 0.0000000000, 0.0303174872, -0.0000000000, -0.0000000000, 0.0000000000, -0.0000000000, 0.0000000000, -0.2197692692, 0.0000000000, -0.0000000000, -0.0000000000, 0.0000000000, 0.0000000000, 0.0000000000, 0.1424517930, -0.1188357472, -0.0000000000, 0.0000000000, -0.0000000000, -0.0000000000, 0.0000000000, -0.0000000000, -0.0000000000, -0.0000000000, -0.2986316085, -0.0000000000, 0.0000000000, -0.0000000000, -0.0000000000, 0.0000000000, 0.1277786940, -0.0000000000, -0.0000000000, 0.0000000000, 0.0000000000, 0.0000000000, 0.0000000000, -0.0000000000, -0.0000000000, -0.2995613813, -0.4301937819, 0.0000000000, -0.0361398123, 0.0000000000, 0.0000000000, 0.0000000000, 0.0000000000, 0.0000000000, -0.0000000000, 0.0000000000, 0.0000000000, -0.0000000000, 0.0000000000, 0.0000000000, 0.0000000000, -0.0000000000, 0.0000000000, -0.0000000000, 0.0000000000, 0.0000000000, 0.0000000000, -0.0000000000, 0.0000000000, -0.0000000000, -0.0000000000, -0.1945638806, -0.0000000000, -0.0000000000, 0.0000000000, -0.0000000000, -0.2490894198, 0.2342499793, 0.4184499383, 0.0000000000, -0.0000000000, 0.0000000000, 0.0000000000, 0.0000000000, -0.3877607882, -0.0000000000, -0.1452331543, 0.0000000000, -0.0000000000, -0.0000000000, 0.0000000000, -0.0000000000, -0.0000000000, -0.3428414166, 0.0000000000, 0.0000000000, -0.0000000000, -0.0000000000, -0.0000000000, -0.0000000000, 0.0000000000, -0.0000000000, 0.0000000000, 0.0000000000, -0.0000000000, 0.0000000000, -0.0000000000, 0.0000000000, -0.0000000000, 0.0000000000, 0.0000000000, -0.4533941448, -0.0000000000, 0.0000000000, 0.0000000000, 0.0000000000, 0.0000000000, 0.0792207867, -0.2322851568, -0.0000000000, 0.0000000000, -0.0000000000, 0.0000000000, -0.0000000000, 0.0000000000, -0.0000000000, 0.0000000000, -0.0000000000, 0.0000000000, 0.0000000000, -0.0415355600, -0.0000000000, 0.3339522481, -0.0000000000, 0.0000000000, 0.0000000000, -0.0000000000, -0.0000000000, 0.0000000000, -0.4042185545, 0.0000000000, -0.2842162549, 0.0000000000, -0.0000000000, -0.0000000000, 0.0000000000, 0.0000000000, 0.0000000000, 0.0000000000, -0.0000000000, -0.0000000000, 0.0000000000, -0.0000000000, -0.0000000000, -0.4085827470, -0.0000000000, -0.0000000000, -0.0000000000, -0.0000000000, -0.0000000000, 0.0000000000, 0.0036202145, 0.1595046967, -0.2335859686, 0.2513670623, -0.0000000000, 0.0000000000, 0.0000000000, 0.0000000000, 0.0000000000, 0.0000000000, -0.0000000000, -0.0000000000, 0.0000000000, 0.0000000000, 0.0000000000, -0.0000000000, 0.0000000000, 0.0000000000, -0.0000000000, 0.0000000000, 0.0000000000, -0.3453623056, 0.0000000000, 0.0000000000, -0.0000000000, 0.1989635676, 0.0000000000, 0.0000000000, -0.0000000000, 0.3170746863, -0.3442202806, 0.0000000000, 0.0000000000, 0.0000000000, -0.0000000000, 0.0000000000, -0.0000000000, -0.3041183650, 0.0000000000, -0.2552848458, -0.0000000000, 0.0000000000, -0.0537658371, -0.0000000000, 0.2494948059, -0.0000000000, 0.0000000000, -0.0000000000, 0.2090680152, 0.0000000000, 0.0000000000, -0.0000000000, -0.0000000000, -0.0000000000, 0.1618016213, -0.0000000000, -0.0000000000, -0.0000000000, 0.0000000000, -0.0000000000, -0.0000000000, -0.0000000000, -0.3699268401, 0.0000000000, -0.0910304785, 0.0000000000, 0.0000000000, 0.0000000000, -0.0000000000, 0.0000000000, -0.1442929506, 0.0000000000, 0.0000000000, 0.0000000000, -0.0000000000, -0.0000000000, 0.0000000000, 0.0000000000, 0.0000000000, -0.1906195432, 0.0000000000, 0.0000000000, -0.0000000000, 0.0000000000, 0.4578157663, 0.0000000000, 0.0000000000, 0.0000000000, -0.0000000000, 0.0000000000, 0.0000000000, 0.1511075199, 0.0000000000, 0.0000000000, -0.3241528571, 0.0000000000, 0.0000000000, 0.0000000000, -0.0000000000, 0.0000000000, -0.0000000000, -0.0000000000, 0.0000000000, -0.0000000000, -0.0000000000, 0.4330288172, 0.0000000000, -0.0000000000, 0.0000000000, -0.0000000000, 0.0000000000, -0.0000000000, 0.0000000000, 0.0000000000, 0.0000000000, 0.2232282162, -0.0034579362, -0.0736900121, 0.0000000000, -0.4507257342, -0.0000000000, -0.5809118152, -0.0000000000, -0.0000000000, -0.0000000000, -0.0976971388, -0.0000000000, -0.0000000000, -0.0000000000, -0.5290603638, 0.0000000000, 0.0000000000, -0.3006486297, 0.0000000000, -0.0000000000, 0.0000000000, 0.0000000000, 0.0000000000, -0.0000000000, -0.0000000000, 0.2842913270, 0.0000000000, 0.0000000000, -0.0000000000, 0.0000000000, 0.0000000000, -0.0000000000, 0.0000000000, 0.0000000000, 0.0000000000, 0.0000000000, 0.0000000000, -0.0000000000, 0.0000000000, 0.0000000000, 0.0000000000, -0.0000000000, -0.0000000000, -0.0000000000, 0.0000000000, 0.0000000000, 0.0000000000, -0.0000000000, 0.0000000000, -0.0000000000, -0.0000000000, 0.0000000000, -0.0000000000, -0.0000000000, 0.2853518426, -0.0000000000, 0.3260625303, 0.0000000000, 0.2527950704, 0.0000000000, -0.0000000000, 0.0000000000, 0.0000000000, -0.0127814347, -0.0000000000, -0.0000000000, -0.0000000000, 0.0000000000, -0.4213317633, -0.3107960224, 0.0000000000, -0.0000000000, 0.3083989322, 0.2126077712, 0.0000000000, -0.4723086655, -0.0000000000, -0.0000000000, -0.0000000000, 0.2556707263, 0.0000000000, -0.2361828536, 0.0000000000, -0.1352246851, 0.0000000000, 0.0000000000, 0.0000000000, -0.0000000000, -0.0000000000, -0.2616109550, 0.2206855118, 0.0000000000, -0.0000000000, -0.3185328841, 0.4912270308, -0.0000000000, 0.0000000000, 0.0000000000, 0.0000000000, 0.0000000000, 0.0000000000, -0.4181244671, 0.0000000000, 0.0000000000, 0.0000000000, -0.0000000000, 0.3067696393, -0.0000000000, 0.0000000000, 0.0000000000, 0.0000000000, -0.0000000000, 0.0000000000, -0.0000000000, -0.0000000000, 0.0000000000, 0.2875004411, -0.0000000000, 0.0000000000, -0.0000000000, -0.0000000000, -0.0000000000, 0.3274438083, 0.0000000000, -0.0000000000, 0.0000000000, 0.2319976538, 0.0000000000, -0.0000000000, -0.0000000000, -0.0000000000, 0.0000000000, -0.0000000000, -0.0000000000, 0.0000000000, -0.0000000000, -0.0000000000, -0.0000000000, -0.0000000000, -0.0000000000, 0.0000000000, -0.0000000000, -0.0000000000, 0.0000000000, 0.0000000000, -0.0000000000, -0.0579656325, 0.0000000000, 0.0000000000, 0.0000000000, 0.0000000000, -0.0000000000, -0.0000000000, 0.0000000000, -0.1817444563, 0.0000000000, -0.0000000000, 0.2599479854, 0.0000000000, -0.0000000000, 0.0000000000, -0.5050165057, -0.4869671166, -0.3759209514, 0.0000000000, -0.3334684670, 0.0000000000, 0.0000000000, 0.0000000000, -0.0000000000, 0.1102188304, -0.0000000000, 0.0000000000, 0.0000000000, 0.2412914783, -0.0000000000, -0.5708596110, -0.0000000000, -0.1266871393, 0.0000000000, -0.0000000000, -0.0000000000, 0.0000000000, -0.0704793707, -0.0000000000, -0.0000000000, -0.0000000000, 0.0000000000, -0.0000000000, 0.0000000000, 0.0000000000, 0.0000000000, -0.0000000000, -0.0000000000, -0.0000000000, -0.1883802414, 0.3318848312, 0.0000000000, 0.3363272548, -0.0000000000, -0.7704006433, -0.9272683263, 0.0000000000, 0.0000000000, 0.5329588056, -0.3793023527, -0.8057174683, -0.0000000000, 1.0027966499, 0.0000000000, -0.0000000000, 0.3946271539, -0.0000000000, -0.0000000000, 0.1926924139, 1.2313531637, -0.7714802027, -0.5744984746, 0.5959766507, -0.0000000000, 0.0000000000, -0.0000000000, 0.5135257840, -0.0000000000, -0.0000000000, -0.0000000000, -0.5097211599, -0.0000000000, -0.4948929250, 0.0000000000, -0.0000000000, 0.0000000000, 0.0000000000, -1.1615242958, -0.0000000000, -0.8687493801, -0.0000000000, 0.5762882233, -0.0000000000, 0.0000000000, -0.0000000000, -1.5671727657, -0.7034195065, 0.7266003489, -0.0000000000, 0.0000000000, -0.0000000000, -0.3535550833, -0.1757268757, 0.0000000000, 0.0000000000, -0.0000000000, 0.0000000000, 0.2600091696, 1.2039835453, 0.8008062243, 0.3739440441, -0.0000000000, 1.3315434456, 0.0000000000, 0.3236145377, 0.0000000000, 0.0000000000, 0.3702279031, -0.3724679351, 0.0000000000, 0.0000000000, 0.0000000000, -0.0000000000, 0.8395868540, 0.3053132296, -0.4778086543, -0.0000000000, -0.0000000000, -0.4818336070, -0.6399444938, 0.0000000000, -0.0000000000, 0.3495127261, -0.0000000000, 0.0000000000, -0.0000000000, -0.0000000000, -0.0000000000, 0.0000000000, -0.0000000000, -0.0000000000, -0.4097143710, -0.0000000000, -0.0000000000, 0.0000000000, -0.0000000000, 0.0000000000, 0.0000000000, 0.0000000000, -0.0000000000, -0.0000000000, 0.0000000000, -0.2859984338, 0.0000000000, 0.1101166308, -0.6093873978, 0.7639054060, 0.0417600945, 0.5199587941, 0.0000000000, -0.6017168760, -0.0000000000, -0.0000000000, 0.0000000000, 0.0000000000, -0.4525225163, 0.0000000000, 0.0000000000, -0.5462611318, 0.0000000000, 0.0000000000, -0.0000000000, -0.0000000000, -0.0000000000, -0.3582657278, -0.0000000000, -0.0000000000};

#endif

#endif
