//Numpy array shape [64, 32]
//Min -1.249178409576
//Max 0.864427149296
//Number of zeros 1536

#ifndef W5_H_
#define W5_H_

#ifndef __SYNTHESIS__
model_default_t w5[2048];
#else
model_default_t w5[2048] = {0.0000000000, 0.0000000000, -0.0000000000, 0.0000000000, 0.0000000000, 0.0000000000, -0.0000000000, -0.0000000000, -0.0000000000, 0.0000000000, 0.0000000000, 0.0000000000, 0.0000000000, -0.0000000000, -0.0000000000, -0.0033928144, -0.1482434273, -0.0000000000, -0.0000000000, -0.0000000000, -0.0000000000, -0.0000000000, 0.0000000000, -0.0000000000, 0.0000000000, -0.0000000000, -0.0000000000, 0.0000000000, -0.0000000000, 0.0000000000, 0.0000000000, -0.0000000000, -0.1754787564, -0.0000000000, -0.0000000000, -0.0740570650, -0.1315247715, 0.0000000000, 0.0000000000, 0.0000000000, 0.0000000000, 0.0000000000, 0.4838022292, -0.1041300595, -0.0000000000, -0.0000000000, -0.0000000000, -0.0000000000, -0.0000000000, -0.0000000000, -0.0000000000, -0.0000000000, -0.0000000000, -0.0000000000, -0.0000000000, 0.0748865530, 0.0000000000, -0.0000000000, 0.0000000000, -0.0104945395, -0.3609328568, 0.1933119744, -0.0367416143, -0.0000000000, 0.0000000000, 0.0000000000, -0.0000000000, 0.0000000000, -0.0000000000, 0.0000000000, 0.0000000000, -0.0788968280, -0.1345085055, 0.0000000000, 0.0000000000, 0.0000000000, 0.0000000000, -0.4625787735, 0.0000000000, -0.0000000000, -0.0000000000, 0.1662996113, -0.0000000000, -0.0000000000, -0.0000000000, -0.0000000000, -0.0000000000, -0.0000000000, 0.0000000000, -0.0000000000, 0.4299499691, -0.3903646767, -0.2646190822, -0.0000000000, 0.0000000000, -0.0000000000, 0.0000000000, 0.2670002282, -0.0000000000, -0.1480575055, -0.0000000000, 0.3519544303, 0.0000000000, 0.0000000000, -0.0496915691, 0.2724036276, 0.0000000000, -0.6314493418, -0.5142273903, -0.0000000000, -0.0000000000, -0.0000000000, -0.0000000000, -0.0000000000, -0.0000000000, 0.1287437826, 0.0512350574, 0.2073876113, -0.0000000000, -0.0000000000, 0.0000000000, -0.0000000000, 0.0000000000, -0.2070468813, -0.2518395483, -0.0000000000, -0.0488413386, -0.0000000000, 0.0000000000, -0.0000000000, 0.0000000000, 0.0000000000, -0.0000000000, 0.0000000000, -0.0000000000, -0.0000000000, 0.0000000000, 0.0000000000, 0.2406355292, 0.0000000000, 0.0000000000, -0.0000000000, 0.0000000000, 0.0000000000, 0.0000000000, 0.0000000000, -0.0000000000, -0.0000000000, -0.0000000000, -0.0000000000, -0.0000000000, 0.0000000000, 0.0000000000, -0.1014479399, -0.0000000000, 0.0000000000, -0.0000000000, -0.3201085925, -0.0000000000, 0.0000000000, 0.3127391636, -0.0691251755, -0.0454139933, 0.2974102795, -0.0000000000, -0.0000000000, -0.1708307564, -0.0000000000, 0.1774337590, -0.6228131056, 0.0000000000, -0.0000000000, 0.0000000000, -0.3998809457, 0.0000000000, 0.4289396405, 0.2107425183, -0.0000000000, 0.2686998546, 0.0000000000, -0.2998383641, -0.1106898785, -0.3647103012, -0.1955737770, 0.0000000000, 0.4570889771, 0.1233507767, 0.1787986904, 0.3359020352, -0.0000000000, 0.0000000000, -0.0000000000, 0.0000000000, 0.0000000000, -0.6477848291, 0.0000000000, -0.0000000000, 0.7947903275, -0.0112654157, -0.4768999219, 0.6350547075, 0.0000000000, 0.0000000000, -0.6089866161, 0.0000000000, -0.2949627936, -0.0000000000, -0.0000000000, -0.4084907472, 0.5358801484, -0.1470625848, 0.6276704669, -0.0284545831, -0.0316185132, -0.5654349327, 0.0827745348, 0.8644271493, -0.0000000000, 0.3446386755, 0.3155027330, -0.0000000000, -0.4941705167, 0.0000000000, -0.1906133890, 0.0000000000, -0.0000000000, -0.0000000000, 0.0000000000, -0.0000000000, 0.7691268921, 0.0000000000, 0.0000000000, 0.0000000000, 0.0000000000, 0.0000000000, -0.2696940303, -0.0271621943, -0.0000000000, 0.0000000000, 0.4837500453, -0.0000000000, 0.0878022686, 0.1167071536, -0.0000000000, -0.0000000000, -0.0000000000, -0.2486669719, 0.0000000000, 0.0000000000, -0.0000000000, 0.0000000000, 0.0000000000, -0.0000000000, -0.0000000000, 0.0000000000, -0.0000000000, 0.3876295984, -0.1652664840, -0.0000000000, 0.0000000000, 0.0851056725, 0.4797626436, 0.0000000000, -0.0000000000, 0.0000000000, 0.0000000000, 0.0689340979, 0.0000000000, 0.0000000000, -0.0000000000, 0.0000000000, 0.3513163626, 0.1465300173, 0.0000000000, -0.0000000000, -0.0000000000, -0.0000000000, 0.2064702064, -0.0000000000, -0.1529967785, 0.0000000000, -0.0000000000, 0.4237242639, 0.0000000000, -0.0000000000, -0.2087824494, 0.0000000000, 0.2521627843, 0.0000000000, 0.0000000000, -0.0000000000, 0.0000000000, -0.0000000000, 0.0000000000, 0.0000000000, 0.3218096793, 0.0000000000, 0.0000000000, 0.0000000000, 0.0000000000, 0.0000000000, -0.0000000000, 0.0000000000, -0.4076893926, -0.0000000000, -0.0000000000, -0.2020635456, -0.0000000000, -0.0000000000, -0.0000000000, -0.0000000000, -0.0000000000, 0.0000000000, -0.0000000000, -0.2023752332, -0.0000000000, -0.0000000000, -0.0000000000, 0.0000000000, -0.3105188012, 0.0000000000, 0.3417446017, -0.0000000000, 0.0000000000, -0.1853446364, 0.0416591391, 0.0000000000, -0.0000000000, -0.2260382921, 0.0000000000, 0.2971519232, -0.0553797334, 0.0000000000, -0.0000000000, -0.0000000000, 0.0000000000, -0.0000000000, 0.3362321854, -0.0000000000, -0.0000000000, -0.0000000000, -0.0000000000, -0.0000000000, 0.0000000000, 0.0000000000, -0.0000000000, 0.2840237319, 0.0000000000, -0.0000000000, -0.0000000000, 0.0000000000, 0.0000000000, 0.0000000000, 0.0000000000, -0.3569065630, 0.4859155118, -0.0000000000, 0.0000000000, -0.0000000000, -0.0000000000, 0.0790270567, -0.0244496521, 0.1672646105, 0.0000000000, 0.0000000000, -0.0000000000, -0.0000000000, -0.0000000000, -0.0000000000, 0.0000000000, -0.0823993757, 0.0000000000, -0.4727578163, -0.4768146873, 0.0000000000, 0.0000000000, 0.0000000000, -0.0000000000, -0.0000000000, 0.0000000000, -0.0000000000, -0.0000000000, 0.1816929281, -0.0000000000, -0.1406970471, 0.0000000000, -0.0000000000, 0.0000000000, -0.0000000000, -0.0000000000, 0.0000000000, 0.0571857169, 0.0000000000, 0.0000000000, 0.0000000000, -0.0000000000, 0.2341195643, -0.0000000000, -0.0000000000, -0.0000000000, -0.0000000000, -0.0774912909, -0.0000000000, 0.0000000000, -0.1183707118, -0.0000000000, 0.0810004100, 0.0000000000, 0.0000000000, 0.2425796986, -0.2047903240, 0.3478308618, 0.3065203726, -0.0000000000, 0.0000000000, -0.0000000000, 0.0000000000, 0.2344408482, 0.0000000000, 0.0000000000, -0.0000000000, -0.6838009357, 0.2702689767, 0.7387685180, -0.3763702810, 0.3381924629, 0.0000000000, 0.2826625109, 0.0000000000, 0.3125667572, -0.0000000000, -0.4611684382, -0.1989099532, -0.5560052395, -0.0000000000, -0.0000000000, 0.4937174916, -0.0000000000, 0.0000000000, 0.0000000000, -0.5481588840, -0.2066159993, -0.5895193219, 0.0000000000, -0.0259544961, 0.6121912003, 0.0000000000, -0.0000000000, 0.0000000000, 0.1219961271, 0.0000000000, 0.0000000000, -0.0000000000, 0.0000000000, 0.1064272970, -0.0000000000, 0.0000000000, 0.0000000000, 0.0000000000, 0.0000000000, -0.0000000000, -0.0000000000, 0.0000000000, -0.2415588945, -0.0000000000, 0.0000000000, -0.0000000000, -0.0000000000, 0.2381937504, -0.0000000000, -0.0000000000, 0.0000000000, 0.0000000000, -0.0000000000, 0.0000000000, 0.0000000000, -0.0000000000, -0.0000000000, 0.0000000000, -0.0000000000, 0.0000000000, -0.0000000000, -0.0000000000, 0.0000000000, 0.3045067489, 0.0000000000, 0.0000000000, 0.0000000000, -0.0770442337, 0.0000000000, 0.0000000000, 0.0000000000, -0.3386286199, -0.0000000000, 0.0000000000, 0.0000000000, 0.2115152925, 0.1128223464, -0.0000000000, -0.0761409402, -0.0000000000, 0.3797026873, -0.0000000000, -0.2533158660, 0.3472831845, 0.2697406411, 0.0000000000, -0.2835479379, -0.0000000000, -0.0000000000, 0.0000000000, 0.2236136794, -0.0000000000, 0.0000000000, -0.0000000000, 0.0000000000, 0.0561989918, 0.0000000000, 0.0690957233, 0.0563403331, 0.0000000000, 0.1388347447, 0.0000000000, -0.0000000000, 0.0000000000, 0.4021053314, 0.0000000000, -0.0000000000, 0.0000000000, 0.0000000000, -0.0000000000, 0.0000000000, -0.0000000000, -0.0000000000, 0.0000000000, 0.2624821365, 0.0000000000, -0.0000000000, -0.1286619008, 0.0000000000, -0.0000000000, -0.0000000000, -0.0199498907, -0.0000000000, 0.0000000000, 0.1986123174, -0.0000000000, -0.0000000000, -0.0000000000, 0.0000000000, 0.0000000000, 0.0000000000, 0.0000000000, 0.0000000000, 0.0000000000, 0.0000000000, 0.0000000000, -0.0000000000, -0.0000000000, 0.0000000000, -0.0000000000, -0.0000000000, -0.0000000000, -0.0000000000, -0.0000000000, -0.0000000000, -0.0000000000, -0.0000000000, -0.0000000000, -0.0000000000, 0.0000000000, 0.1872715950, 0.0000000000, 0.0000000000, 0.0000000000, -0.0000000000, 0.0000000000, 0.2433621287, 0.3953979015, 0.0000000000, -0.0000000000, 0.0000000000, 0.0000000000, 0.2364756316, 0.0000000000, 0.0000000000, 0.4172669053, 0.0000000000, 0.0000000000, -0.0000000000, -0.0000000000, -0.0000000000, -0.0000000000, 0.0000000000, -0.0000000000, -0.0000000000, -0.0000000000, -0.0000000000, 0.4162272811, 0.4104663134, 0.0000000000, -0.0000000000, -0.0000000000, 0.0000000000, -0.0000000000, 0.2120765597, 0.1729252785, 0.0761686862, 0.0000000000, 0.2604411542, -0.0000000000, 0.1828763038, -0.0000000000, 0.0000000000, 0.0000000000, -0.0000000000, 0.0000000000, 0.0000000000, 0.1771712303, 0.0000000000, 0.0000000000, -0.0000000000, 0.0000000000, 0.0000000000, -0.0000000000, -0.1223519519, -0.0000000000, -0.0000000000, -0.0000000000, -0.0000000000, -0.0000000000, -0.2182819694, 0.0000000000, -0.0681182966, 0.0412504338, 0.0000000000, -0.0000000000, -0.0000000000, 0.0000000000, 0.0000000000, 0.0000000000, -0.0000000000, 0.3507492244, -0.3017177880, -0.0000000000, 0.0000000000, 0.0000000000, 0.0000000000, -0.4225521386, 0.3534697890, -0.0054598320, 0.3100746572, 0.0000000000, -0.0000000000, 0.0000000000, 0.0000000000, -0.0000000000, -0.0000000000, -0.3345552981, -0.0000000000, 0.2941805422, 0.4517342448, -0.0000000000, -0.0000000000, 0.0000000000, 0.2154964805, 0.0000000000, -0.1126204208, -0.0000000000, 0.2545610368, 0.0000000000, -0.2971842289, 0.0000000000, 0.0000000000, -0.0000000000, 0.0000000000, -0.0000000000, 0.5862993598, 0.0000000000, -0.0000000000, 0.1223539039, 0.0000000000, 0.0000000000, -0.1969476789, 0.0000000000, -0.0000000000, 0.0000000000, 0.2916720808, -0.0000000000, 0.5857145190, -0.0000000000, -0.0000000000, -0.0857100114, -0.0000000000, -0.4570582807, -0.1237598434, 0.3561006188, -0.0000000000, 0.3677832484, 0.0000000000, -0.0000000000, -0.3828123212, 0.0000000000, 0.4361621439, 0.0000000000, 0.0000000000, 0.0585548207, 0.1327292472, -0.0000000000, -0.0000000000, -0.0000000000, -0.0000000000, 0.0000000000, -0.0000000000, 0.0603338331, 0.0169700868, 0.0000000000, -0.0000000000, 0.0000000000, -0.0000000000, -0.0000000000, -0.0000000000, 0.2309679687, 0.0000000000, -0.0897826925, -0.1729214638, 0.4514582455, 0.0000000000, 0.0000000000, 0.1174255610, -0.0000000000, 0.0000000000, -0.0000000000, -0.0000000000, 0.2261469811, -0.0000000000, 0.0000000000, -0.0000000000, 0.5981159210, -0.0805920884, -0.0000000000, 0.0000000000, 0.0000000000, -0.0008046157, 0.0000000000, 0.0000000000, 0.0000000000, 0.0885024890, -0.2191544920, 0.0761045516, 0.0000000000, -0.0000000000, -0.0000000000, -0.0000000000, -0.0000000000, -0.0000000000, 0.1275869310, 0.2487954348, -0.0000000000, -0.0000000000, 0.0000000000, 0.2343175858, 0.0000000000, 0.0000000000, -0.0000000000, -0.1638187617, 0.0000000000, 0.1004466936, 0.0000000000, 0.0000000000, 0.0000000000, 0.1126077175, -0.0000000000, 0.0000000000, -0.0000000000, -0.0000000000, 0.0000000000, 0.0000000000, 0.2602368891, 0.0000000000, 0.2632726729, 0.1999507397, 0.0000000000, 0.1886500120, 0.1136023402, 0.0000000000, 0.1441630274, -0.0000000000, 0.2281697392, -0.0000000000, 0.0000000000, 0.0000000000, -0.1546258479, -0.0000000000, -0.0000000000, 0.0000000000, -0.0000000000, -0.0000000000, 0.0000000000, -0.0000000000, 0.3681976199, 0.0000000000, 0.2717057765, 0.0000000000, -0.0000246512, 0.0000000000, 0.3074680865, 0.0000000000, 0.0000000000, 0.0000000000, 0.0000000000, 0.2089375705, 0.0000000000, -0.0000000000, 0.0000000000, -0.0000000000, -0.0000000000, -0.0000000000, -0.0000000000, -0.0000000000, -0.0000000000, -0.0000000000, -0.0000000000, -0.0000000000, 0.0000000000, -0.0000000000, 0.0000000000, 0.0000000000, -0.0000000000, -0.1964399219, 0.0000000000, -0.0000000000, -0.0000000000, -0.0000000000, -0.0000000000, 0.0000000000, -0.0000000000, 0.0980316773, 0.0000000000, -0.1819722652, 0.0000000000, 0.0000000000, -0.0000000000, 0.0000000000, 0.0000000000, -0.0053739012, -0.0000000000, 0.0000000000, 0.4802916944, 0.0000000000, -0.0016496016, -0.0000000000, -0.0000000000, -0.0000000000, -0.0000000000, 0.0000000000, -0.0000000000, -0.0000000000, 0.0000000000, -0.3460471034, -0.0000000000, 0.0000000000, -0.0000000000, 0.1943782419, 0.0000000000, 0.0000000000, 0.3637953699, 0.0000000000, -0.0000000000, -0.0000000000, 0.0000000000, 0.0000000000, 0.0000000000, 0.0000000000, 0.0000000000, 0.0000000000, 0.0000000000, 0.2851460576, -0.0000000000, 0.0000000000, -0.0000000000, -0.0000000000, -0.0000000000, 0.4646416903, -0.0000000000, -0.0000000000, 0.3151384592, 0.0000000000, 0.0000000000, -0.0000000000, -0.0000000000, 0.0000000000, 0.0577703342, 0.0000000000, 0.0000000000, -0.0511432625, -0.0000000000, -0.0000000000, -0.0000000000, -0.0000000000, -0.0000000000, -0.0000000000, -0.0000000000, -0.0000000000, 0.0000000000, 0.0000000000, 0.0000000000, -0.0000000000, 0.0000000000, 0.0000000000, -0.0000000000, -0.0000000000, 0.0000000000, -0.0000000000, -0.0000000000, 0.0000000000, 0.0590456463, -0.0000000000, 0.0000000000, 0.2512277365, 0.0000000000, -0.0000000000, -0.0000000000, 0.0000000000, -0.0000000000, 0.0000000000, 0.0000000000, -0.0000000000, -0.0000000000, 0.0000000000, -0.0000000000, 0.0000000000, -0.0000000000, 0.0000000000, 0.0000000000, 0.0000000000, 0.0000000000, 0.0000000000, 0.0000000000, 0.0000000000, 0.1608004123, 0.0000000000, 0.0000000000, 0.0000000000, 0.1269720942, -0.0000000000, 0.2169977278, -0.0000000000, -0.0000000000, -0.0000000000, 0.0000000000, -0.0000000000, 0.0000000000, -0.0000000000, -0.0000000000, -0.0000000000, 0.0000000000, 0.0000000000, 0.0000000000, -0.0000000000, 0.0000000000, 0.0000000000, 0.0000000000, 0.0000000000, 0.1441674978, 0.0000000000, 0.0000000000, 0.0000000000, 0.4070974886, 0.0000000000, 0.0000000000, 0.0000000000, 0.3372760713, -0.0000000000, 0.0000000000, 0.1852577925, -0.0000000000, -0.0000000000, -0.0000000000, 0.2607587278, -0.0000000000, -0.0000000000, -0.0000000000, 0.0000000000, 0.3709329963, -0.0000000000, 0.0000000000, 0.2650146186, 0.2282371819, -0.1951106340, 0.0000000000, -0.0000000000, 0.2687569559, 0.0000000000, 0.0000000000, 0.0000000000, 0.1615199596, 0.0000000000, 0.0622454435, -0.0000000000, 0.0000000000, -0.1741190255, 0.0000000000, -0.0000000000, 0.0000000000, -0.0000000000, 0.0000000000, 0.1810950488, -0.0000000000, 0.0000000000, -0.0000000000, 0.0000000000, -0.0000000000, -0.0000000000, -0.0000000000, 0.0000000000, 0.0000000000, 0.0781154633, -0.0000000000, 0.3647063375, 0.2879742682, -0.0000000000, 0.0000000000, -0.0000000000, 0.0000000000, 0.0000000000, -0.0562055558, 0.0000000000, -0.0000000000, -0.0000000000, 0.0000000000, -0.0000000000, 0.0000000000, -0.0000000000, 0.2416073084, 0.0022440183, 0.2045293450, -0.0000000000, 0.0000000000, -0.0000000000, -0.0000000000, -0.1367191970, -0.0000000000, -0.0683224872, -0.0000000000, -0.0000000000, 0.0000000000, 0.0000000000, 0.0000000000, -0.0000000000, -0.0000000000, 0.0000000000, -0.0000000000, -0.0000000000, 0.1874445826, -0.0000000000, 0.0000000000, 0.0000000000, -0.1356897205, 0.2158546597, -0.0000000000, -0.3468264341, -0.0000000000, -0.0000000000, 0.0000000000, -0.0000000000, 0.0000000000, -0.0000000000, 0.0000000000, -0.0000000000, -0.0000000000, -0.0000000000, 0.0300318766, -0.0000000000, -0.0000000000, 0.0000000000, -0.0000000000, -0.2691528499, 0.0000000000, 0.0000000000, 0.0000000000, -0.0000000000, -0.0000000000, -0.0662347823, -0.0000000000, 0.2164709270, 0.0000000000, -0.0000000000, 0.0129428059, -0.0000000000, 0.0000000000, 0.0000000000, -0.0000000000, 0.2033428997, 0.0000000000, -0.0000000000, 0.0000000000, 0.0000000000, 0.5007142425, 0.0000000000, 0.0000000000, -0.0000000000, 0.0000000000, -0.2066932321, -0.0000000000, 0.0000000000, -0.0000000000, -0.0000000000, -0.0000000000, -0.0000000000, -0.0000000000, 0.0000000000, 0.0000000000, -0.0000000000, 0.0000000000, 0.0000000000, -0.0000000000, -0.0000000000, 0.0000000000, 0.0946578905, 0.0000000000, 0.0000000000, -0.0000000000, 0.0000000000, -0.0000000000, 0.0000000000, 0.0000000000, 0.0000000000, 0.1811336130, 0.0000000000, 0.1450178325, 0.0000000000, 0.0000000000, -0.0000000000, -0.0000000000, -0.0000000000, -0.0000000000, -0.0000000000, -0.0000000000, -0.0000000000, -0.0000000000, -0.0000000000, 0.0000000000, 0.0000000000, 0.0000000000, -0.0000000000, -0.0000000000, 0.0000000000, 0.1216591075, -0.2427729666, 0.3251248002, -0.0000000000, 0.0000000000, 0.0000000000, -0.0000000000, 0.0000000000, -0.0000000000, 0.0000000000, 0.0000000000, 0.0000000000, 0.0000000000, 0.0000000000, 0.0000000000, 0.0000000000, 0.0000000000, -0.0000000000, -0.0000000000, 0.0000000000, -0.0000000000, 0.0372652560, 0.3768483400, -0.0000000000, -0.0000000000, -0.0000000000, -0.0000000000, 0.0000000000, 0.0000000000, -0.0000000000, -0.0000000000, 0.0000000000, -0.0000000000, -0.0000000000, 0.0000000000, -0.0000000000, 0.0000000000, 0.0000000000, 0.0000000000, 0.0000000000, -0.0000000000, 0.0000000000, 0.0000000000, 0.0000000000, 0.0000000000, 0.0000000000, 0.0000000000, 0.0000000000, 0.0000000000, -0.0000000000, 0.0000000000, -0.0000000000, -0.0000000000, -0.0000000000, -0.0000000000, -0.0000000000, 0.0368678793, 0.1854993999, -0.0000000000, 0.0000000000, 0.0000000000, -0.0000000000, -0.0000000000, 0.0000000000, 0.1458090991, -0.0000000000, 0.0000000000, -0.0000000000, -0.2355652750, 0.0000000000, -0.3138638139, 0.4454237819, -0.0000000000, -0.0000000000, -0.0379503295, -0.6334962845, 0.2448481470, 0.0000000000, 0.1474247426, -0.0000000000, 0.0000000000, -0.8784486651, 0.0000000000, -0.0000000000, -0.0000000000, -0.0000000000, -0.0000000000, 0.0000000000, -0.4415565431, -0.0000000000, 0.0000000000, -0.2945655286, 0.0000000000, 0.0809535086, 0.0835604891, 0.1898160130, -0.0000000000, 0.2230627388, 0.0000000000, -0.0000000000, 0.0000000000, 0.0000000000, 0.0233957171, 0.0000000000, -0.0000000000, -0.0000000000, -0.0000000000, 0.0000000000, 0.1892825961, 0.0000000000, 0.0000000000, -0.0000644581, 0.0000000000, 0.0000000000, 0.0000000000, -0.0000000000, -0.0000000000, -0.0000000000, -0.0000000000, 0.0635543838, -0.0000000000, 0.0000000000, 0.0000000000, -0.0000000000, 0.0000000000, -0.1571653038, -0.0000000000, 0.1339967102, 0.1286213994, 0.0000000000, 0.0000000000, -0.0000000000, -0.0000000000, -0.0000000000, -0.0000000000, 0.0000000000, -0.0000000000, 0.0000000000, -0.0000000000, -0.0000000000, 0.0000000000, 0.0000000000, 0.0000000000, -0.0000000000, 0.0000000000, -0.3973416090, 0.0000000000, -0.0000000000, 0.0000000000, 0.0000000000, -0.0000000000, 0.0000000000, -0.1917425692, -0.0000000000, -0.2640961111, 0.0000000000, 0.0000000000, -0.0000000000, -0.0000000000, 0.0000000000, -0.0000000000, -0.1552861929, 0.1665537208, -0.0000000000, 0.0000000000, 0.3009283841, -0.0000000000, -0.0000000000, 0.0177948773, 0.0000000000, 0.0000000000, 0.0000000000, 0.0000000000, 0.0000000000, 0.0000000000, 0.0000000000, 0.0000000000, -0.0000000000, -0.0000000000, 0.0000000000, -0.0000000000, -0.0000000000, -0.0000000000, -0.0000000000, -0.0000000000, 0.0845316947, -0.0000000000, -0.0000000000, 0.0000000000, 0.0641734451, -0.1612460315, 0.0000000000, 0.0000000000, 0.0000000000, 0.0000000000, -0.0000000000, -0.1143714413, 0.0000000000, 0.2020063400, 0.0000000000, 0.1235661879, 0.0000000000, 0.0000000000, 0.4980379045, 0.1987752616, 0.0000000000, 0.0000000000, -0.0000000000, 0.0000000000, -0.0000000000, 0.0000000000, -0.0000000000, 0.3337446749, -0.0000000000, -0.0000000000, 0.0000000000, 0.3266576529, 0.2507863641, 0.3763551116, 0.4107676744, 0.0000000000, -0.0000000000, -0.0000000000, 0.0000000000, 0.2775961459, -0.0000000000, 0.1276894957, -0.0000000000, -0.0000000000, 0.2722168863, -0.0000000000, 0.0000000000, 0.0000000000, 0.0000000000, 0.0000000000, -0.0000000000, -0.1261685193, 0.0000000000, 0.2092253119, -0.0000000000, 0.2118756473, -0.0000000000, 0.0000000000, -0.0000000000, -0.3336418569, -0.0000000000, -0.0000000000, -0.0000000000, -0.0000000000, -0.0000000000, 0.0000000000, -0.2046459168, 0.0000000000, -0.0000000000, -0.0000000000, 0.0000000000, -0.1713636220, 0.0000000000, 0.0000000000, -0.0000000000, -0.0000000000, 0.0000000000, -0.0000000000, 0.0000000000, -0.0000000000, 0.0000000000, 0.0000000000, 0.0000000000, 0.0000000000, 0.0000000000, 0.1034333482, -0.0000000000, 0.0000000000, -0.2770018876, 0.0000000000, 0.0000000000, -0.0000000000, -0.0000000000, 0.0000000000, -0.0000000000, -0.0000000000, -0.0000000000, 0.0000000000, -0.0000000000, 0.0000000000, -0.0000000000, -0.0000000000, 0.0000000000, -0.0000000000, 0.0000000000, 0.0000000000, -0.0000000000, -0.4410224259, -0.0000000000, -0.3902010322, -0.0000000000, -0.0000000000, 0.2523795366, -0.4047078490, 0.0000000000, 0.0000000000, 0.0000000000, 0.0000000000, 0.0000000000, 0.0000000000, -0.0138225006, 0.0000000000, 0.0000000000, 0.2913205922, -0.0000000000, -0.0000000000, 0.3138619661, -0.1604610831, -0.1006543264, 0.1774806678, 0.0000000000, 0.0000000000, 0.0000000000, 0.0000000000, -0.0000000000, -0.0000000000, -0.0000000000, 0.0000000000, 0.2850568593, 0.0000000000, 0.0000000000, -0.3482892513, 0.5953936577, 0.1738839149, -0.0000000000, -0.0000000000, -0.7102465630, 0.2758228481, -0.5036463141, 0.0000000000, -0.0000000000, 0.0000000000, -0.6685270071, -0.0000000000, 0.1169993058, -0.0000000000, -0.0000000000, -0.0000000000, 0.0000000000, -0.6209867001, -0.6032214761, 0.0000000000, 0.0000000000, 0.0000000000, 0.0986218229, -0.0000000000, 0.0000000000, -0.0000000000, 0.2704076469, 0.2932373285, -0.1865992844, 0.0000000000, -0.3435254991, 0.0000000000, 0.1735704392, -0.0000000000, 0.0000000000, 0.0000000000, -0.2046089172, 0.1445309520, 0.0000000000, -0.3031280041, -0.0000000000, 0.0000000000, -0.0000000000, -0.0000000000, 0.4520993531, 0.0939652398, -0.0000000000, 0.3255890012, 0.0000000000, -0.0000000000, -0.0000000000, -0.4856637716, 0.0000000000, 0.0000000000, -0.0000000000, -0.0000000000, 0.0000000000, 0.2854821086, -0.0000000000, 0.0000000000, -0.0000000000, -0.1491577923, -0.0000000000, 0.0000000000, 0.3218899369, -0.0000000000, -0.0000000000, 0.0000000000, -0.0000000000, 0.0000000000, 0.0000000000, 0.0000000000, 0.2025868893, 0.0000000000, 0.1981163919, 0.0000000000, -0.0000000000, -0.0000000000, 0.0000000000, -0.0000000000, -0.0000000000, 0.2261456102, -0.0000000000, 0.4973708391, 0.2914607823, 0.0000000000, -0.0000000000, -0.3383449912, 0.0000000000, 0.0976040140, 0.2973550856, 0.0000000000, -0.0000000000, -0.0000000000, -0.0000000000, -0.0000000000, -0.0000000000, -0.0000000000, -0.0000000000, -0.0000000000, -0.0000000000, 0.3192992806, 0.0000000000, 0.0587771945, -0.0000000000, 0.0000000000, -0.0000000000, 0.0000000000, -0.0000000000, 0.0000000000, 0.0000000000, -0.0000000000, 0.0000000000, -0.0000000000, -0.0000000000, 0.0000000000, 0.0000000000, 0.0000000000, -0.0000000000, -0.0000000000, 0.3406451344, -0.0000000000, -0.0000000000, 0.0000000000, -0.0000000000, 0.0000000000, 0.0000000000, -0.0000000000, 0.0000000000, -0.0000000000, 0.0000000000, 0.0000000000, -0.0000000000, 0.0000000000, 0.0000000000, 0.0000000000, 0.0000000000, 0.0000000000, -0.0000000000, -0.0000000000, -0.0000000000, -0.0000000000, -0.0000000000, -0.0000000000, -0.0000000000, -0.0000000000, -0.0000000000, -0.0000000000, 0.0000000000, 0.0000000000, -0.0000000000, -0.0000000000, 0.0000000000, -0.0000000000, -0.0000000000, 0.0000000000, -0.0000000000, 0.0000000000, 0.2134259641, -0.0000000000, 0.0000000000, 0.0000000000, 0.0000000000, -0.0000000000, 0.0000000000, -0.0000000000, 0.0000000000, 0.1794712096, 0.0000000000, 0.0000000000, -0.1833437532, 0.0000000000, -0.0000000000, -0.0000000000, -0.0000000000, -0.0000000000, -0.0000000000, -0.0000000000, -0.0000000000, 0.0000000000, -0.0000000000, 0.0000000000, -0.0000000000, -0.0000000000, 0.0000000000, -0.0000000000, 0.0000000000, 0.0000000000, -0.0000000000, 0.3045729399, 0.0000000000, 0.0607610047, 0.0000000000, -0.0000000000, 0.1871837974, 0.0000000000, 0.0000000000, 0.0000000000, 0.0000000000, 0.0000000000, 0.0000000000, 0.0000000000, -0.0000000000, 0.0000000000, 0.3526338339, -0.0000000000, 0.0000000000, -0.0000000000, -0.0000000000, -0.0000000000, -0.0000000000, -0.2656269372, 0.0000000000, 0.2944903076, -0.0000000000, -0.0000000000, 0.2270821631, 0.1556948870, -0.0670205653, 0.0000000000, -0.0000000000, 0.0000000000, -0.0963544250, -0.0000000000, -0.0538513437, -0.0000000000, 0.0000000000, 0.0000000000, 0.0000000000, 0.0000000000, 0.0000000000, 0.0000000000, 0.0000000000, 0.0000000000, -0.0000000000, 0.0000000000, 0.3461900949, -0.0000000000, -0.0000000000, 0.2202572227, -0.0000000000, -0.0000000000, -0.0000000000, -0.4461027384, 0.0000000000, 0.0000000000, 0.1562660336, -0.0000000000, 0.0000000000, -0.0000000000, -0.0000000000, 0.0000000000, 0.3228443265, 0.0000000000, 0.0000000000, -0.0000000000, 0.1726062298, 0.0000000000, -0.0000000000, -0.0000000000, -0.0000000000, 0.0000000000, -0.0000000000, 0.0000000000, 0.0000000000, 0.0000000000, -0.0000000000, 0.0000000000, -0.0000000000, -0.0000000000, -0.0000000000, -0.0000000000, -0.0000000000, -0.0000000000, -0.0000000000, 0.0000000000, 0.0000000000, -0.2099229395, -0.0000000000, -0.0000000000, 0.0000000000, -0.0000000000, -0.0000000000, 0.0000000000, -0.0000000000, -0.0000000000, 0.0560627952, -0.0000000000, 0.0000000000, -0.0000000000, -0.0000000000, -0.0000000000, 0.0000000000, 0.1949705929, 0.0000000000, -0.2960741222, -0.0000000000, 0.0000000000, 0.0000000000, -0.0000000000, -0.0000000000, 0.3413644731, -0.0000000000, -0.0000000000, 0.0000000000, 0.0000000000, -0.0000000000, 0.0000000000, 0.0000000000, 0.0000000000, -0.0000000000, -0.0000000000, 0.0000000000, 0.2223243713, -0.0604421981, 0.0000000000, -0.0000000000, -0.0000000000, 0.3016109169, -0.0000000000, 0.0000000000, 0.0000000000, 0.0000000000, -0.0000000000, -0.0000000000, -0.0085281590, 0.0000000000, 0.0000000000, -0.0000000000, 0.0000000000, -0.0000000000, 0.0000000000, -0.0000000000, 0.0000000000, -0.0000000000, -0.0000000000, -0.1980188042, -0.0000000000, -0.0000000000, 0.0000000000, 0.0000000000, -0.0000000000, -0.0000000000, -0.0000000000, 0.0000000000, -0.0000000000, -0.0000000000, 0.0000000000, -0.0000000000, 0.0000000000, 0.0000000000, 0.0000000000, 0.0000000000, -0.0000000000, 0.0000000000, 0.0000000000, -0.0000000000, 0.0000000000, 0.0000000000, 0.2139956355, -0.0549575053, 0.0000000000, -0.0000000000, -0.0000000000, -0.0000000000, 0.0999278203, 0.0000000000, -0.0000000000, -0.0000000000, -0.0000000000, -0.0000000000, -0.0000000000, 0.0000000000, 0.0000000000, -0.1013774127, 0.2495078146, 0.0000000000, 0.1333794594, -0.0000000000, 0.0000000000, -0.0000000000, 0.0000000000, 0.0000000000, 0.2420667857, 0.0000000000, 0.0000000000, -0.0000000000, -0.0000000000, -0.0000000000, 0.0000000000, -0.0000000000, 0.0000000000, -0.0000000000, 0.0000000000, -0.0000000000, -0.0000000000, -0.0000000000, -0.0000000000, -0.0000000000, -0.0000000000, -0.0000000000, 0.1732876599, 0.2265094221, 0.4795348644, 0.0000000000, 0.0000000000, -0.0000000000, -0.0000000000, 0.0000000000, 0.4337225854, -0.0000000000, 0.0000000000, -0.0000000000, 0.0000000000, -0.0000000000, -0.0000000000, 0.0000000000, -0.0000000000, 0.0000000000, 0.5265741348, 0.4267755449, -0.1925445199, 0.3667077422, 0.0000000000, 0.0000000000, 0.0000000000, 0.2820549607, 0.0000000000, 0.0000000000, -0.0000000000, -0.3281749189, -0.0000000000, -0.0000000000, 0.0972364470, 0.6210379601, 0.1993301064, -0.0000000000, -0.0000000000, -0.0000000000, 0.0000000000, -0.0083391992, 0.0000000000, -0.0000000000, 0.0000000000, -0.0000000000, 0.0000000000, 0.0000000000, 0.3710085154, 0.0000000000, -0.0000000000, -0.6240661144, -0.0000000000, 0.3005857766, -0.1292555481, 0.0000000000, 0.2682876289, 0.2810550034, 0.0000000000, 0.3881126940, -0.0000000000, -0.0000000000, 0.3319892883, -0.3063777387, 0.1377225071, -0.2298967242, 0.3229459524, -0.0000000000, 0.6419208646, 0.3417063057, -0.4617030025, -0.0000000000, -0.3140653670, 0.3179812431, 0.3210441768, 0.6033567786, 0.0000000000, -0.0000000000, 0.0000000000, 0.0000000000, -0.0000000000, -0.2351727635, -0.0000000000, 0.0000000000, 0.0000000000, 0.0000000000, -0.0451517031, 0.2418529093, -0.5391189456, 0.0000000000, -0.1158876270, -0.0000000000, -0.0000000000, -0.2454833537, -0.0000000000, -0.0000000000, -0.0000000000, -0.0000000000, -0.0000000000, 0.0948478356, -0.0000000000, -0.0000000000, -0.0000000000, -0.0000000000, -0.1642345935, -0.3618690073, -0.2637072504, -0.0000000000, 0.0026751235, 0.0953108370, -0.0000000000, -0.0000000000, -0.0000000000, 0.0000000000, -0.0000000000, 0.0000000000, -0.0000000000, -0.0000000000, 0.3867421746, 0.0000000000, -0.0000000000, -0.0000000000, 0.4919849336, -0.0955729038, -0.0000000000, -0.0000000000, 0.0000000000, 0.1220573410, -0.0000000000, 0.0000000000, -0.0000000000, -0.0000000000, 0.0000000000, 0.0000000000, 0.0000000000, -0.0000000000, -0.0000000000, 0.0000000000, -0.0000000000, -0.0000000000, 0.1590146869, -0.0916983411, 0.0000000000, 0.0000000000, -0.1792026907, -0.4551316798, -0.1477898508, 0.0000000000, 0.4966416955, 0.0000000000, -0.6447836161, 0.2686640322, -0.1859954298, 0.2848069668, 0.0000000000, -0.0000000000, 0.0000000000, -1.2491784096, -0.0000000000, -0.0000000000, -0.0000000000, -0.0000000000, -0.0000000000, -0.0000000000, 0.1359052807, -0.0000000000, 0.0000000000, -0.0000000000, -0.1669085920, -0.8232031465, -0.3581403792, 0.1279283166, 0.0405693129, -0.0000000000};

#endif

#endif
